/*!
 * The following copyright notice may not be removed under any circumstances.
 * 
 * Copyright:
 * Created by Keshikan
 * with FontForge 2.0 (http://fontforge.sf.net)
 * 
 * Designer:
 * Keshikan(Twitter:@keshinomi_88pro)
 */
Raphael.registerFont({"w":816,"face":{"font-family":"DSEG14 Classic-Bold Italic","font-weight":700,"font-style":"italic","font-stretch":"normal","units-per-em":"1000","panose-1":"2 0 8 3 0 0 0 0 0 0","ascent":"1000","descent":"0","bbox":"-106 -1000 754 0","underline-thickness":"50","underline-position":"-100","slope":"-5","unicode-range":"U+0020-U+007E"},"glyphs":{" ":{"w":200},"\"":{"d":"230,-576r-72,66r-58,0r36,-414r34,-31r85,93xm357,-628r20,-228r124,0r-20,228r-71,107"},"$":{"d":"230,-576r-72,66r-58,0r36,-414r34,-31r85,93xm582,-562r58,63r-66,61r-123,0r-31,-62r41,-62r121,0xm586,-424r72,-65r58,0r-36,413r-34,31r-85,-93xm357,-628r20,-228r124,0r-20,228r-71,107xm631,-31r-34,31r-466,0r-28,-31r101,-93r342,0xm185,-969r34,-31r466,0r28,31r-101,93r-342,0xm365,-562r31,62r-41,62r-123,0r-57,-62r67,-62r123,0xm459,-372r-20,228r-124,0r20,-228r71,-107"},"%":{"d":"230,-576r-72,66r-58,0r36,-414r34,-31r85,93xm582,-562r58,63r-66,61r-123,0r-31,-62r41,-62r121,0xm586,-424r72,-65r58,0r-36,413r-34,31r-85,-93xm513,-766r60,-90r31,0r-17,194r-53,80r-37,0xm559,-338r-17,194r-31,0r-44,-90r16,-184r37,0xm365,-562r31,62r-41,62r-123,0r-57,-62r67,-62r123,0xm303,-234r-60,90r-31,0r17,-194r53,-80r37,0xm257,-662r17,-194r31,0r44,90r-16,184r-37,0"},"&":{"d":"586,-424r72,-65r58,0r-36,413r-34,31r-85,-93xm513,-766r60,-90r31,0r-17,194r-53,80r-37,0xm559,-338r-17,194r-31,0r-44,-90r16,-184r37,0xm631,-31r-34,31r-466,0r-28,-31r101,-93r342,0xm185,-969r34,-31r466,0r28,31r-101,93r-342,0xm303,-234r-60,90r-31,0r17,-194r53,-80r37,0xm257,-662r17,-194r31,0r44,90r-16,184r-37,0"},"'":{"d":"357,-628r20,-228r124,0r-20,228r-71,107"},"(":{"d":"513,-766r60,-90r31,0r-17,194r-53,80r-37,0xm559,-338r-17,194r-31,0r-44,-90r16,-184r37,0"},")":{"d":"303,-234r-60,90r-31,0r17,-194r53,-80r37,0xm257,-662r17,-194r31,0r44,90r-16,184r-37,0"},"*":{"d":"582,-562r58,63r-66,61r-123,0r-31,-62r41,-62r121,0xm513,-766r60,-90r31,0r-17,194r-53,80r-37,0xm357,-628r20,-228r124,0r-20,228r-71,107xm559,-338r-17,194r-31,0r-44,-90r16,-184r37,0xm365,-562r31,62r-41,62r-123,0r-57,-62r67,-62r123,0xm303,-234r-60,90r-31,0r17,-194r53,-80r37,0xm459,-372r-20,228r-124,0r20,-228r71,-107xm257,-662r17,-194r31,0r44,90r-16,184r-37,0"},"+":{"d":"582,-562r58,63r-66,61r-123,0r-31,-62r41,-62r121,0xm357,-628r20,-228r124,0r-20,228r-71,107xm365,-562r31,62r-41,62r-123,0r-57,-62r67,-62r123,0xm459,-372r-20,228r-124,0r20,-228r71,-107"},",":{"d":"303,-234r-60,90r-31,0r17,-194r53,-80r37,0"},"-":{"d":"582,-562r58,63r-66,61r-123,0r-31,-62r41,-62r121,0xm365,-562r31,62r-41,62r-123,0r-57,-62r67,-62r123,0"},".":{"d":"-44,-124v37,0,62,25,62,62v0,37,-25,62,-62,62v-37,0,-62,-25,-62,-62v0,-37,25,-62,62,-62","w":0},"\/":{"d":"513,-766r60,-90r31,0r-17,194r-53,80r-37,0xm303,-234r-60,90r-31,0r17,-194r53,-80r37,0"},"0":{"d":"230,-576r-72,66r-58,0r36,-414r34,-31r85,93xm216,-424r-25,286r-101,93r-28,-31r36,-414r58,0xm586,-424r72,-65r58,0r-36,413r-34,31r-85,-93xm513,-766r60,-90r31,0r-17,194r-53,80r-37,0xm726,-955r28,31r-36,414v-20,-2,-49,5,-62,-4r-56,-61r25,-287xm631,-31r-34,31r-466,0r-28,-31r101,-93r342,0xm185,-969r34,-31r466,0r28,31r-101,93r-342,0xm303,-234r-60,90r-31,0r17,-194r53,-80r37,0"},"1":{"d":"586,-424r72,-65r58,0r-36,413r-34,31r-85,-93xm726,-955r28,31r-36,414v-20,-2,-49,5,-62,-4r-56,-61r25,-287"},"2":{"d":"582,-562r58,63r-66,61r-123,0r-31,-62r41,-62r121,0xm216,-424r-25,286r-101,93r-28,-31r36,-414r58,0xm726,-955r28,31r-36,414v-20,-2,-49,5,-62,-4r-56,-61r25,-287xm631,-31r-34,31r-466,0r-28,-31r101,-93r342,0xm185,-969r34,-31r466,0r28,31r-101,93r-342,0xm365,-562r31,62r-41,62r-123,0r-57,-62r67,-62r123,0"},"3":{"d":"582,-562r58,63r-66,61r-123,0r-31,-62r41,-62r121,0xm586,-424r72,-65r58,0r-36,413r-34,31r-85,-93xm726,-955r28,31r-36,414v-20,-2,-49,5,-62,-4r-56,-61r25,-287xm631,-31r-34,31r-466,0r-28,-31r101,-93r342,0xm185,-969r34,-31r466,0r28,31r-101,93r-342,0xm365,-562r31,62r-41,62r-123,0r-57,-62r67,-62r123,0"},"4":{"d":"230,-576r-72,66r-58,0r36,-414r34,-31r85,93xm582,-562r58,63r-66,61r-123,0r-31,-62r41,-62r121,0xm586,-424r72,-65r58,0r-36,413r-34,31r-85,-93xm726,-955r28,31r-36,414v-20,-2,-49,5,-62,-4r-56,-61r25,-287xm365,-562r31,62r-41,62r-123,0r-57,-62r67,-62r123,0"},"5":{"d":"230,-576r-72,66r-58,0r36,-414r34,-31r85,93xm582,-562r58,63r-66,61r-123,0r-31,-62r41,-62r121,0xm586,-424r72,-65r58,0r-36,413r-34,31r-85,-93xm631,-31r-34,31r-466,0r-28,-31r101,-93r342,0xm185,-969r34,-31r466,0r28,31r-101,93r-342,0xm365,-562r31,62r-41,62r-123,0r-57,-62r67,-62r123,0"},"6":{"d":"230,-576r-72,66r-58,0r36,-414r34,-31r85,93xm582,-562r58,63r-66,61r-123,0r-31,-62r41,-62r121,0xm216,-424r-25,286r-101,93r-28,-31r36,-414r58,0xm586,-424r72,-65r58,0r-36,413r-34,31r-85,-93xm631,-31r-34,31r-466,0r-28,-31r101,-93r342,0xm185,-969r34,-31r466,0r28,31r-101,93r-342,0xm365,-562r31,62r-41,62r-123,0r-57,-62r67,-62r123,0"},"7":{"d":"230,-576r-72,66r-58,0r36,-414r34,-31r85,93xm586,-424r72,-65r58,0r-36,413r-34,31r-85,-93xm726,-955r28,31r-36,414v-20,-2,-49,5,-62,-4r-56,-61r25,-287xm185,-969r34,-31r466,0r28,31r-101,93r-342,0"},"8":{"d":"230,-576r-72,66r-58,0r36,-414r34,-31r85,93xm582,-562r58,63r-66,61r-123,0r-31,-62r41,-62r121,0xm216,-424r-25,286r-101,93r-28,-31r36,-414r58,0xm586,-424r72,-65r58,0r-36,413r-34,31r-85,-93xm726,-955r28,31r-36,414v-20,-2,-49,5,-62,-4r-56,-61r25,-287xm631,-31r-34,31r-466,0r-28,-31r101,-93r342,0xm185,-969r34,-31r466,0r28,31r-101,93r-342,0xm365,-562r31,62r-41,62r-123,0r-57,-62r67,-62r123,0"},"9":{"d":"230,-576r-72,66r-58,0r36,-414r34,-31r85,93xm582,-562r58,63r-66,61r-123,0r-31,-62r41,-62r121,0xm586,-424r72,-65r58,0r-36,413r-34,31r-85,-93xm726,-955r28,31r-36,414v-20,-2,-49,5,-62,-4r-56,-61r25,-287xm631,-31r-34,31r-466,0r-28,-31r101,-93r342,0xm185,-969r34,-31r466,0r28,31r-101,93r-342,0xm365,-562r31,62r-41,62r-123,0r-57,-62r67,-62r123,0"},":":{"d":"106,-717v35,-73,150,-23,109,48v-14,45,-100,51,-113,0v-5,-19,-2,-36,4,-48xm70,-305v35,-73,150,-22,109,48v-15,46,-102,50,-114,0v-5,-17,-1,-37,5,-48","w":200},"<":{"d":"513,-766r60,-90r31,0r-17,194r-53,80r-37,0xm631,-31r-34,31r-466,0r-28,-31r101,-93r342,0xm303,-234r-60,90r-31,0r17,-194r53,-80r37,0"},"=":{"d":"582,-562r58,63r-66,61r-123,0r-31,-62r41,-62r121,0xm631,-31r-34,31r-466,0r-28,-31r101,-93r342,0xm365,-562r31,62r-41,62r-123,0r-57,-62r67,-62r123,0"},">":{"d":"559,-338r-17,194r-31,0r-44,-90r16,-184r37,0xm631,-31r-34,31r-466,0r-28,-31r101,-93r342,0xm257,-662r17,-194r31,0r44,90r-16,184r-37,0"},"?":{"d":"230,-576r-72,66r-58,0r36,-414r34,-31r85,93xm582,-562r58,63r-66,61r-123,0r-31,-62r41,-62r121,0xm726,-955r28,31r-36,414v-20,-2,-49,5,-62,-4r-56,-61r25,-287xm185,-969r34,-31r466,0r28,31r-101,93r-342,0xm459,-372r-20,228r-124,0r20,-228r71,-107"},"@":{"d":"230,-576r-72,66r-58,0r36,-414r34,-31r85,93xm582,-562r58,63r-66,61r-123,0r-31,-62r41,-62r121,0xm216,-424r-25,286r-101,93r-28,-31r36,-414r58,0xm586,-424r72,-65r58,0r-36,413r-34,31r-85,-93xm726,-955r28,31r-36,414v-20,-2,-49,5,-62,-4r-56,-61r25,-287xm631,-31r-34,31r-466,0r-28,-31r101,-93r342,0xm185,-969r34,-31r466,0r28,31r-101,93r-342,0xm459,-372r-20,228r-124,0r20,-228r71,-107"},"A":{"d":"230,-576r-72,66r-58,0r36,-414r34,-31r85,93xm582,-562r58,63r-66,61r-123,0r-31,-62r41,-62r121,0xm216,-424r-25,286r-101,93r-28,-31r36,-414r58,0xm586,-424r72,-65r58,0r-36,413r-34,31r-85,-93xm726,-955r28,31r-36,414v-20,-2,-49,5,-62,-4r-56,-61r25,-287xm185,-969r34,-31r466,0r28,31r-101,93r-342,0xm365,-562r31,62r-41,62r-123,0r-57,-62r67,-62r123,0"},"B":{"d":"582,-562r58,63r-66,61r-123,0r-31,-62r41,-62r121,0xm586,-424r72,-65r58,0r-36,413r-34,31r-85,-93xm726,-955r28,31r-36,414v-20,-2,-49,5,-62,-4r-56,-61r25,-287xm357,-628r20,-228r124,0r-20,228r-71,107xm631,-31r-34,31r-466,0r-28,-31r101,-93r342,0xm185,-969r34,-31r466,0r28,31r-101,93r-342,0xm459,-372r-20,228r-124,0r20,-228r71,-107"},"C":{"d":"230,-576r-72,66r-58,0r36,-414r34,-31r85,93xm216,-424r-25,286r-101,93r-28,-31r36,-414r58,0xm631,-31r-34,31r-466,0r-28,-31r101,-93r342,0xm185,-969r34,-31r466,0r28,31r-101,93r-342,0"},"D":{"d":"586,-424r72,-65r58,0r-36,413r-34,31r-85,-93xm726,-955r28,31r-36,414v-20,-2,-49,5,-62,-4r-56,-61r25,-287xm357,-628r20,-228r124,0r-20,228r-71,107xm631,-31r-34,31r-466,0r-28,-31r101,-93r342,0xm185,-969r34,-31r466,0r28,31r-101,93r-342,0xm459,-372r-20,228r-124,0r20,-228r71,-107"},"E":{"d":"230,-576r-72,66r-58,0r36,-414r34,-31r85,93xm582,-562r58,63r-66,61r-123,0r-31,-62r41,-62r121,0xm216,-424r-25,286r-101,93r-28,-31r36,-414r58,0xm631,-31r-34,31r-466,0r-28,-31r101,-93r342,0xm185,-969r34,-31r466,0r28,31r-101,93r-342,0xm365,-562r31,62r-41,62r-123,0r-57,-62r67,-62r123,0"},"F":{"d":"230,-576r-72,66r-58,0r36,-414r34,-31r85,93xm582,-562r58,63r-66,61r-123,0r-31,-62r41,-62r121,0xm216,-424r-25,286r-101,93r-28,-31r36,-414r58,0xm185,-969r34,-31r466,0r28,31r-101,93r-342,0xm365,-562r31,62r-41,62r-123,0r-57,-62r67,-62r123,0"},"G":{"d":"230,-576r-72,66r-58,0r36,-414r34,-31r85,93xm582,-562r58,63r-66,61r-123,0r-31,-62r41,-62r121,0xm216,-424r-25,286r-101,93r-28,-31r36,-414r58,0xm586,-424r72,-65r58,0r-36,413r-34,31r-85,-93xm631,-31r-34,31r-466,0r-28,-31r101,-93r342,0xm185,-969r34,-31r466,0r28,31r-101,93r-342,0"},"H":{"d":"230,-576r-72,66r-58,0r36,-414r34,-31r85,93xm582,-562r58,63r-66,61r-123,0r-31,-62r41,-62r121,0xm216,-424r-25,286r-101,93r-28,-31r36,-414r58,0xm586,-424r72,-65r58,0r-36,413r-34,31r-85,-93xm726,-955r28,31r-36,414v-20,-2,-49,5,-62,-4r-56,-61r25,-287xm365,-562r31,62r-41,62r-123,0r-57,-62r67,-62r123,0"},"I":{"d":"357,-628r20,-228r124,0r-20,228r-71,107xm631,-31r-34,31r-466,0r-28,-31r101,-93r342,0xm185,-969r34,-31r466,0r28,31r-101,93r-342,0xm459,-372r-20,228r-124,0r20,-228r71,-107"},"J":{"d":"216,-424r-25,286r-101,93r-28,-31r36,-414r58,0xm586,-424r72,-65r58,0r-36,413r-34,31r-85,-93xm726,-955r28,31r-36,414v-20,-2,-49,5,-62,-4r-56,-61r25,-287xm631,-31r-34,31r-466,0r-28,-31r101,-93r342,0"},"K":{"d":"230,-576r-72,66r-58,0r36,-414r34,-31r85,93xm216,-424r-25,286r-101,93r-28,-31r36,-414r58,0xm513,-766r60,-90r31,0r-17,194r-53,80r-37,0xm559,-338r-17,194r-31,0r-44,-90r16,-184r37,0xm365,-562r31,62r-41,62r-123,0r-57,-62r67,-62r123,0"},"L":{"d":"230,-576r-72,66r-58,0r36,-414r34,-31r85,93xm216,-424r-25,286r-101,93r-28,-31r36,-414r58,0xm631,-31r-34,31r-466,0r-28,-31r101,-93r342,0"},"M":{"d":"230,-576r-72,66r-58,0r36,-414r34,-31r85,93xm216,-424r-25,286r-101,93r-28,-31r36,-414r58,0xm586,-424r72,-65r58,0r-36,413r-34,31r-85,-93xm513,-766r60,-90r31,0r-17,194r-53,80r-37,0xm726,-955r28,31r-36,414v-20,-2,-49,5,-62,-4r-56,-61r25,-287xm459,-372r-20,228r-124,0r20,-228r71,-107xm257,-662r17,-194r31,0r44,90r-16,184r-37,0"},"N":{"d":"230,-576r-72,66r-58,0r36,-414r34,-31r85,93xm216,-424r-25,286r-101,93r-28,-31r36,-414r58,0xm586,-424r72,-65r58,0r-36,413r-34,31r-85,-93xm726,-955r28,31r-36,414v-20,-2,-49,5,-62,-4r-56,-61r25,-287xm559,-338r-17,194r-31,0r-44,-90r16,-184r37,0xm257,-662r17,-194r31,0r44,90r-16,184r-37,0"},"O":{"d":"230,-576r-72,66r-58,0r36,-414r34,-31r85,93xm216,-424r-25,286r-101,93r-28,-31r36,-414r58,0xm586,-424r72,-65r58,0r-36,413r-34,31r-85,-93xm726,-955r28,31r-36,414v-20,-2,-49,5,-62,-4r-56,-61r25,-287xm631,-31r-34,31r-466,0r-28,-31r101,-93r342,0xm185,-969r34,-31r466,0r28,31r-101,93r-342,0"},"P":{"d":"230,-576r-72,66r-58,0r36,-414r34,-31r85,93xm582,-562r58,63r-66,61r-123,0r-31,-62r41,-62r121,0xm216,-424r-25,286r-101,93r-28,-31r36,-414r58,0xm726,-955r28,31r-36,414v-20,-2,-49,5,-62,-4r-56,-61r25,-287xm185,-969r34,-31r466,0r28,31r-101,93r-342,0xm365,-562r31,62r-41,62r-123,0r-57,-62r67,-62r123,0"},"Q":{"d":"230,-576r-72,66r-58,0r36,-414r34,-31r85,93xm216,-424r-25,286r-101,93r-28,-31r36,-414r58,0xm586,-424r72,-65r58,0r-36,413r-34,31r-85,-93xm726,-955r28,31r-36,414v-20,-2,-49,5,-62,-4r-56,-61r25,-287xm559,-338r-17,194r-31,0r-44,-90r16,-184r37,0xm631,-31r-34,31r-466,0r-28,-31r101,-93r342,0xm185,-969r34,-31r466,0r28,31r-101,93r-342,0"},"R":{"d":"230,-576r-72,66r-58,0r36,-414r34,-31r85,93xm582,-562r58,63r-66,61r-123,0r-31,-62r41,-62r121,0xm216,-424r-25,286r-101,93r-28,-31r36,-414r58,0xm726,-955r28,31r-36,414v-20,-2,-49,5,-62,-4r-56,-61r25,-287xm559,-338r-17,194r-31,0r-44,-90r16,-184r37,0xm185,-969r34,-31r466,0r28,31r-101,93r-342,0xm365,-562r31,62r-41,62r-123,0r-57,-62r67,-62r123,0"},"S":{"d":"230,-576r-72,66r-58,0r36,-414r34,-31r85,93xm582,-562r58,63r-66,61r-123,0r-31,-62r41,-62r121,0xm586,-424r72,-65r58,0r-36,413r-34,31r-85,-93xm559,-338r-17,194r-31,0r-44,-90r16,-184r37,0xm631,-31r-34,31r-466,0r-28,-31r101,-93r342,0xm185,-969r34,-31r466,0r28,31r-101,93r-342,0xm365,-562r31,62r-41,62r-123,0r-57,-62r67,-62r123,0xm257,-662r17,-194r31,0r44,90r-16,184r-37,0"},"T":{"d":"357,-628r20,-228r124,0r-20,228r-71,107xm185,-969r34,-31r466,0r28,31r-101,93r-342,0xm459,-372r-20,228r-124,0r20,-228r71,-107"},"U":{"d":"230,-576r-72,66r-58,0r36,-414r34,-31r85,93xm216,-424r-25,286r-101,93r-28,-31r36,-414r58,0xm586,-424r72,-65r58,0r-36,413r-34,31r-85,-93xm726,-955r28,31r-36,414v-20,-2,-49,5,-62,-4r-56,-61r25,-287xm631,-31r-34,31r-466,0r-28,-31r101,-93r342,0"},"V":{"d":"230,-576r-72,66r-58,0r36,-414r34,-31r85,93xm216,-424r-25,286r-101,93r-28,-31r36,-414r58,0xm513,-766r60,-90r31,0r-17,194r-53,80r-37,0xm303,-234r-60,90r-31,0r17,-194r53,-80r37,0"},"W":{"d":"230,-576r-72,66r-58,0r36,-414r34,-31r85,93xm216,-424r-25,286r-101,93r-28,-31r36,-414r58,0xm586,-424r72,-65r58,0r-36,413r-34,31r-85,-93xm726,-955r28,31r-36,414v-20,-2,-49,5,-62,-4r-56,-61r25,-287xm357,-628r20,-228r124,0r-20,228r-71,107xm559,-338r-17,194r-31,0r-44,-90r16,-184r37,0xm303,-234r-60,90r-31,0r17,-194r53,-80r37,0"},"X":{"d":"513,-766r60,-90r31,0r-17,194r-53,80r-37,0xm559,-338r-17,194r-31,0r-44,-90r16,-184r37,0xm303,-234r-60,90r-31,0r17,-194r53,-80r37,0xm257,-662r17,-194r31,0r44,90r-16,184r-37,0"},"Y":{"d":"513,-766r60,-90r31,0r-17,194r-53,80r-37,0xm459,-372r-20,228r-124,0r20,-228r71,-107xm257,-662r17,-194r31,0r44,90r-16,184r-37,0"},"Z":{"d":"513,-766r60,-90r31,0r-17,194r-53,80r-37,0xm631,-31r-34,31r-466,0r-28,-31r101,-93r342,0xm185,-969r34,-31r466,0r28,31r-101,93r-342,0xm303,-234r-60,90r-31,0r17,-194r53,-80r37,0"},"\\":{"d":"559,-338r-17,194r-31,0r-44,-90r16,-184r37,0xm257,-662r17,-194r31,0r44,90r-16,184r-37,0"},"^":{"d":"230,-576r-72,66r-58,0r36,-414r34,-31r85,93xm257,-662r17,-194r31,0r44,90r-16,184r-37,0"},"_":{"d":"631,-31r-34,31r-466,0r-28,-31r101,-93r342,0"},"`":{"d":"257,-662r17,-194r31,0r44,90r-16,184r-37,0"},"a":{"d":"230,-576r-72,66r-58,0r36,-414r34,-31r85,93xm582,-562r58,63r-66,61r-123,0r-31,-62r41,-62r121,0xm216,-424r-25,286r-101,93r-28,-31r36,-414r58,0xm586,-424r72,-65r58,0r-36,413r-34,31r-85,-93xm726,-955r28,31r-36,414v-20,-2,-49,5,-62,-4r-56,-61r25,-287xm185,-969r34,-31r466,0r28,31r-101,93r-342,0xm365,-562r31,62r-41,62r-123,0r-57,-62r67,-62r123,0"},"b":{"d":"582,-562r58,63r-66,61r-123,0r-31,-62r41,-62r121,0xm586,-424r72,-65r58,0r-36,413r-34,31r-85,-93xm726,-955r28,31r-36,414v-20,-2,-49,5,-62,-4r-56,-61r25,-287xm357,-628r20,-228r124,0r-20,228r-71,107xm631,-31r-34,31r-466,0r-28,-31r101,-93r342,0xm185,-969r34,-31r466,0r28,31r-101,93r-342,0xm459,-372r-20,228r-124,0r20,-228r71,-107"},"c":{"d":"230,-576r-72,66r-58,0r36,-414r34,-31r85,93xm216,-424r-25,286r-101,93r-28,-31r36,-414r58,0xm631,-31r-34,31r-466,0r-28,-31r101,-93r342,0xm185,-969r34,-31r466,0r28,31r-101,93r-342,0"},"d":{"d":"586,-424r72,-65r58,0r-36,413r-34,31r-85,-93xm726,-955r28,31r-36,414v-20,-2,-49,5,-62,-4r-56,-61r25,-287xm357,-628r20,-228r124,0r-20,228r-71,107xm631,-31r-34,31r-466,0r-28,-31r101,-93r342,0xm185,-969r34,-31r466,0r28,31r-101,93r-342,0xm459,-372r-20,228r-124,0r20,-228r71,-107"},"e":{"d":"230,-576r-72,66r-58,0r36,-414r34,-31r85,93xm582,-562r58,63r-66,61r-123,0r-31,-62r41,-62r121,0xm216,-424r-25,286r-101,93r-28,-31r36,-414r58,0xm631,-31r-34,31r-466,0r-28,-31r101,-93r342,0xm185,-969r34,-31r466,0r28,31r-101,93r-342,0xm365,-562r31,62r-41,62r-123,0r-57,-62r67,-62r123,0"},"f":{"d":"230,-576r-72,66r-58,0r36,-414r34,-31r85,93xm582,-562r58,63r-66,61r-123,0r-31,-62r41,-62r121,0xm216,-424r-25,286r-101,93r-28,-31r36,-414r58,0xm185,-969r34,-31r466,0r28,31r-101,93r-342,0xm365,-562r31,62r-41,62r-123,0r-57,-62r67,-62r123,0"},"g":{"d":"230,-576r-72,66r-58,0r36,-414r34,-31r85,93xm582,-562r58,63r-66,61r-123,0r-31,-62r41,-62r121,0xm216,-424r-25,286r-101,93r-28,-31r36,-414r58,0xm586,-424r72,-65r58,0r-36,413r-34,31r-85,-93xm631,-31r-34,31r-466,0r-28,-31r101,-93r342,0xm185,-969r34,-31r466,0r28,31r-101,93r-342,0"},"h":{"d":"230,-576r-72,66r-58,0r36,-414r34,-31r85,93xm582,-562r58,63r-66,61r-123,0r-31,-62r41,-62r121,0xm216,-424r-25,286r-101,93r-28,-31r36,-414r58,0xm586,-424r72,-65r58,0r-36,413r-34,31r-85,-93xm726,-955r28,31r-36,414v-20,-2,-49,5,-62,-4r-56,-61r25,-287xm365,-562r31,62r-41,62r-123,0r-57,-62r67,-62r123,0"},"i":{"d":"357,-628r20,-228r124,0r-20,228r-71,107xm631,-31r-34,31r-466,0r-28,-31r101,-93r342,0xm185,-969r34,-31r466,0r28,31r-101,93r-342,0xm459,-372r-20,228r-124,0r20,-228r71,-107"},"j":{"d":"216,-424r-25,286r-101,93r-28,-31r36,-414r58,0xm586,-424r72,-65r58,0r-36,413r-34,31r-85,-93xm726,-955r28,31r-36,414v-20,-2,-49,5,-62,-4r-56,-61r25,-287xm631,-31r-34,31r-466,0r-28,-31r101,-93r342,0"},"k":{"d":"230,-576r-72,66r-58,0r36,-414r34,-31r85,93xm216,-424r-25,286r-101,93r-28,-31r36,-414r58,0xm513,-766r60,-90r31,0r-17,194r-53,80r-37,0xm559,-338r-17,194r-31,0r-44,-90r16,-184r37,0xm365,-562r31,62r-41,62r-123,0r-57,-62r67,-62r123,0"},"l":{"d":"230,-576r-72,66r-58,0r36,-414r34,-31r85,93xm216,-424r-25,286r-101,93r-28,-31r36,-414r58,0xm631,-31r-34,31r-466,0r-28,-31r101,-93r342,0"},"m":{"d":"230,-576r-72,66r-58,0r36,-414r34,-31r85,93xm216,-424r-25,286r-101,93r-28,-31r36,-414r58,0xm586,-424r72,-65r58,0r-36,413r-34,31r-85,-93xm513,-766r60,-90r31,0r-17,194r-53,80r-37,0xm726,-955r28,31r-36,414v-20,-2,-49,5,-62,-4r-56,-61r25,-287xm459,-372r-20,228r-124,0r20,-228r71,-107xm257,-662r17,-194r31,0r44,90r-16,184r-37,0"},"n":{"d":"230,-576r-72,66r-58,0r36,-414r34,-31r85,93xm216,-424r-25,286r-101,93r-28,-31r36,-414r58,0xm586,-424r72,-65r58,0r-36,413r-34,31r-85,-93xm726,-955r28,31r-36,414v-20,-2,-49,5,-62,-4r-56,-61r25,-287xm559,-338r-17,194r-31,0r-44,-90r16,-184r37,0xm257,-662r17,-194r31,0r44,90r-16,184r-37,0"},"o":{"d":"230,-576r-72,66r-58,0r36,-414r34,-31r85,93xm216,-424r-25,286r-101,93r-28,-31r36,-414r58,0xm586,-424r72,-65r58,0r-36,413r-34,31r-85,-93xm726,-955r28,31r-36,414v-20,-2,-49,5,-62,-4r-56,-61r25,-287xm631,-31r-34,31r-466,0r-28,-31r101,-93r342,0xm185,-969r34,-31r466,0r28,31r-101,93r-342,0"},"p":{"d":"230,-576r-72,66r-58,0r36,-414r34,-31r85,93xm582,-562r58,63r-66,61r-123,0r-31,-62r41,-62r121,0xm216,-424r-25,286r-101,93r-28,-31r36,-414r58,0xm726,-955r28,31r-36,414v-20,-2,-49,5,-62,-4r-56,-61r25,-287xm185,-969r34,-31r466,0r28,31r-101,93r-342,0xm365,-562r31,62r-41,62r-123,0r-57,-62r67,-62r123,0"},"q":{"d":"230,-576r-72,66r-58,0r36,-414r34,-31r85,93xm216,-424r-25,286r-101,93r-28,-31r36,-414r58,0xm586,-424r72,-65r58,0r-36,413r-34,31r-85,-93xm726,-955r28,31r-36,414v-20,-2,-49,5,-62,-4r-56,-61r25,-287xm559,-338r-17,194r-31,0r-44,-90r16,-184r37,0xm631,-31r-34,31r-466,0r-28,-31r101,-93r342,0xm185,-969r34,-31r466,0r28,31r-101,93r-342,0"},"r":{"d":"230,-576r-72,66r-58,0r36,-414r34,-31r85,93xm582,-562r58,63r-66,61r-123,0r-31,-62r41,-62r121,0xm216,-424r-25,286r-101,93r-28,-31r36,-414r58,0xm726,-955r28,31r-36,414v-20,-2,-49,5,-62,-4r-56,-61r25,-287xm559,-338r-17,194r-31,0r-44,-90r16,-184r37,0xm185,-969r34,-31r466,0r28,31r-101,93r-342,0xm365,-562r31,62r-41,62r-123,0r-57,-62r67,-62r123,0"},"s":{"d":"230,-576r-72,66r-58,0r36,-414r34,-31r85,93xm582,-562r58,63r-66,61r-123,0r-31,-62r41,-62r121,0xm586,-424r72,-65r58,0r-36,413r-34,31r-85,-93xm559,-338r-17,194r-31,0r-44,-90r16,-184r37,0xm631,-31r-34,31r-466,0r-28,-31r101,-93r342,0xm185,-969r34,-31r466,0r28,31r-101,93r-342,0xm365,-562r31,62r-41,62r-123,0r-57,-62r67,-62r123,0xm257,-662r17,-194r31,0r44,90r-16,184r-37,0"},"t":{"d":"357,-628r20,-228r124,0r-20,228r-71,107xm185,-969r34,-31r466,0r28,31r-101,93r-342,0xm459,-372r-20,228r-124,0r20,-228r71,-107"},"u":{"d":"230,-576r-72,66r-58,0r36,-414r34,-31r85,93xm216,-424r-25,286r-101,93r-28,-31r36,-414r58,0xm586,-424r72,-65r58,0r-36,413r-34,31r-85,-93xm726,-955r28,31r-36,414v-20,-2,-49,5,-62,-4r-56,-61r25,-287xm631,-31r-34,31r-466,0r-28,-31r101,-93r342,0"},"v":{"d":"230,-576r-72,66r-58,0r36,-414r34,-31r85,93xm216,-424r-25,286r-101,93r-28,-31r36,-414r58,0xm513,-766r60,-90r31,0r-17,194r-53,80r-37,0xm303,-234r-60,90r-31,0r17,-194r53,-80r37,0"},"w":{"d":"230,-576r-72,66r-58,0r36,-414r34,-31r85,93xm216,-424r-25,286r-101,93r-28,-31r36,-414r58,0xm586,-424r72,-65r58,0r-36,413r-34,31r-85,-93xm726,-955r28,31r-36,414v-20,-2,-49,5,-62,-4r-56,-61r25,-287xm357,-628r20,-228r124,0r-20,228r-71,107xm559,-338r-17,194r-31,0r-44,-90r16,-184r37,0xm303,-234r-60,90r-31,0r17,-194r53,-80r37,0"},"x":{"d":"513,-766r60,-90r31,0r-17,194r-53,80r-37,0xm559,-338r-17,194r-31,0r-44,-90r16,-184r37,0xm303,-234r-60,90r-31,0r17,-194r53,-80r37,0xm257,-662r17,-194r31,0r44,90r-16,184r-37,0"},"y":{"d":"513,-766r60,-90r31,0r-17,194r-53,80r-37,0xm459,-372r-20,228r-124,0r20,-228r71,-107xm257,-662r17,-194r31,0r44,90r-16,184r-37,0"},"z":{"d":"513,-766r60,-90r31,0r-17,194r-53,80r-37,0xm631,-31r-34,31r-466,0r-28,-31r101,-93r342,0xm185,-969r34,-31r466,0r28,31r-101,93r-342,0xm303,-234r-60,90r-31,0r17,-194r53,-80r37,0"},"|":{"d":"357,-628r20,-228r124,0r-20,228r-71,107xm459,-372r-20,228r-124,0r20,-228r71,-107"},"~":{"d":"230,-576r-72,66r-58,0r36,-414r34,-31r85,93xm582,-562r58,63r-66,61r-123,0r-31,-62r41,-62r121,0xm216,-424r-25,286r-101,93r-28,-31r36,-414r58,0xm586,-424r72,-65r58,0r-36,413r-34,31r-85,-93xm513,-766r60,-90r31,0r-17,194r-53,80r-37,0xm726,-955r28,31r-36,414v-20,-2,-49,5,-62,-4r-56,-61r25,-287xm357,-628r20,-228r124,0r-20,228r-71,107xm559,-338r-17,194r-31,0r-44,-90r16,-184r37,0xm631,-31r-34,31r-466,0r-28,-31r101,-93r342,0xm185,-969r34,-31r466,0r28,31r-101,93r-342,0xm365,-562r31,62r-41,62r-123,0r-57,-62r67,-62r123,0xm303,-234r-60,90r-31,0r17,-194r53,-80r37,0xm459,-372r-20,228r-124,0r20,-228r71,-107xm257,-662r17,-194r31,0r44,90r-16,184r-37,0"},"\u00a0":{"w":200}}});


