/*!
 * The following copyright notice may not be removed under any circumstances.
 * 
 * Copyright:
 * Copyright 2010, 2012 Adobe Systems Incorporated. All Rights Reserved.
 * 
 * Trademark:
 * Source is a trademark of Adobe Systems Incorporated in the United States and/or
 * other countries.
 * 
 * Manufacturer:
 * Adobe Systems Incorporated
 * 
 * Designer:
 * Paul D. Hunt
 * 
 * Vendor URL:
 * http://www.adobe.com/type
 * 
 * License information:
 * http://www.adobe.com/type/legal.html
 */
Rafael.registerFont({"w":600,"face":{"font-family":"Source Code Pro Black","font-weight":900,"font-stretch":"normal","units-per-em":"1000","panose-1":"2 11 8 9 3 4 3 2 2 4","ascent":"750","descent":"-250","x-height":"12","bbox":"0 -868 600 250","underline-thickness":"50","underline-position":"-50","stemh":"134","stemv":"172","unicode-range":"U+0020-U+20BA"},"glyphs":{" ":{},"A":{"d":"239,-271r116,0r-57,-251r-4,0xm418,0r-32,-138r-178,0r-32,138r-176,0r196,-650r208,0r196,650r-182,0"},"B":{"d":"76,0r0,-650v199,4,460,-38,458,162v0,56,-34,120,-110,140r0,4v92,18,138,66,138,152v0,134,-112,192,-252,192r-234,0xm248,-394v67,6,123,-14,118,-68v6,-53,-56,-59,-118,-56r0,124xm248,-132v78,5,155,-8,146,-74v8,-65,-71,-72,-146,-68r0,142"},"C":{"d":"51,-320v0,-218,142,-342,318,-342v84,0,152,40,198,84r-94,106v-101,-92,-246,-26,-246,146v0,177,159,245,254,138r94,104v-55,64,-128,96,-208,96v-170,0,-316,-110,-316,-332"},"D":{"d":"58,0r0,-650r183,0v186,0,317,92,317,322v0,230,-131,328,-307,328r-193,0xm230,-138v86,0,152,-37,152,-190v0,-153,-67,-184,-152,-184r0,374"},"E":{"d":"86,0r0,-650r440,0r0,144r-268,0r0,102r228,0r0,144r-228,0r0,116r278,0r0,144r-450,0"},"F":{"d":"98,0r0,-650r441,0r0,144r-269,0r0,124r230,0r0,144r-230,0r0,238r-172,0"},"G":{"d":"40,-320v0,-220,137,-342,306,-342v88,0,151,40,194,84r-94,106v-94,-91,-229,-27,-229,146v0,122,45,190,138,190v16,0,34,-4,44,-12r0,-90r-81,0r0,-140r234,0r0,310v-45,40,-124,80,-207,80v-167,0,-305,-110,-305,-332"},"H":{"d":"58,0r0,-650r172,0r0,242r140,0r0,-242r172,0r0,650r-172,0r0,-258r-140,0r0,258r-172,0"},"I":{"d":"66,0r0,-144r148,0r0,-362r-148,0r0,-144r468,0r0,144r-148,0r0,362r148,0r0,144r-468,0"},"J":{"d":"51,-95r97,-107v37,42,78,66,118,66v56,0,87,-22,87,-104r0,-266r-247,0r0,-144r419,0r0,424v0,130,-66,238,-253,238v-72,0,-160,-26,-221,-107"},"K":{"d":"57,0r0,-650r173,0r0,242r4,0r160,-242r189,0r-191,264r207,386r-189,0r-118,-250r-62,88r0,162r-173,0"},"L":{"d":"96,0r0,-650r172,0r0,506r277,0r0,144r-449,0"},"M":{"d":"58,0r0,-650r169,0r55,212r18,84r3,0r70,-296r169,0r0,650r-138,0v-4,-157,7,-339,22,-483r-3,0r-88,310r-74,0r-85,-310r-4,0v15,141,26,328,22,483r-136,0"},"N":{"d":"60,0r0,-650r174,0r162,436r4,0v-20,-127,-28,-284,-24,-436r164,0r0,650r-174,0r-162,-436r-4,0v20,131,28,282,24,436r-164,0"},"O":{"d":"300,12v-158,0,-266,-126,-266,-340v0,-214,108,-334,266,-334v158,0,266,121,266,334v0,214,-108,340,-266,340xm300,-136v56,0,90,-74,90,-192v0,-118,-34,-186,-90,-186v-56,0,-90,68,-90,186v0,118,34,192,90,192"},"P":{"d":"63,0r0,-650r252,0v140,0,260,52,260,216v0,188,-153,241,-340,228r0,206r-172,0xm235,-342r72,0v68,0,100,-34,100,-92v0,-85,-86,-83,-172,-80r0,172"},"Q":{"d":"296,-514v-56,0,-89,68,-89,186v0,118,33,192,89,192v56,0,89,-74,89,-192v0,-118,-33,-186,-89,-186xm560,34r30,126v-22,14,-58,24,-104,24v-133,0,-227,-75,-270,-184v-113,-36,-185,-152,-185,-328v0,-214,107,-334,265,-334v158,0,265,121,265,334v0,165,-64,278,-166,321v34,59,109,67,165,41"},"R":{"d":"230,-514r0,160v87,6,162,-8,162,-86v0,-77,-81,-76,-162,-74xm596,0r-192,0r-112,-218r-62,0r0,218r-172,0r0,-650v237,3,500,-43,502,210v0,93,-42,154,-105,188"},"S":{"d":"44,-81r98,-118v49,37,107,63,158,63v59,0,80,-17,80,-46v0,-48,-129,-69,-175,-97v-75,-28,-137,-87,-137,-181v0,-111,100,-202,248,-202v77,0,159,28,222,87r-86,108v-47,-31,-84,-47,-136,-47v-48,0,-74,15,-74,44v0,45,127,74,177,96v84,37,137,88,137,178v0,110,-92,208,-260,208v-85,0,-179,-30,-252,-93"},"T":{"d":"214,0r0,-506r-187,0r0,-144r546,0r0,144r-187,0r0,506r-172,0"},"U":{"d":"58,-252r0,-398r172,0r0,418v0,56,17,96,72,96v55,0,74,-40,74,-96r0,-418r166,0r0,398v0,162,-70,264,-240,264v-170,0,-244,-102,-244,-264"},"V":{"d":"196,0r-192,-650r182,0r116,490r4,0r114,-490r176,0r-192,650r-208,0"},"W":{"d":"83,0r-81,-650r176,0r8,322r0,168r4,0v8,-56,20,-113,32,-168r36,-158r100,0r65,326r4,0r0,-168r8,-322r164,0r-75,650r-178,0r-29,-178v-7,-42,-14,-88,-15,-127r-3,0v-8,102,-28,206,-42,305r-174,0"},"X":{"d":"4,0r188,-334r-177,-316r192,0r52,106v15,30,30,66,49,108r4,0v15,-42,30,-78,43,-108r46,-106r184,0r-177,324r188,326r-192,0r-60,-116v-18,-34,-33,-68,-50,-108r-4,0v-31,82,-66,149,-102,224r-184,0"},"Y":{"d":"214,0r0,-215r-206,-435r184,0r107,290r4,0r109,-290r180,0r-206,435r0,215r-172,0"},"Z":{"d":"53,0r0,-104r282,-402r-255,0r0,-144r467,0r0,104r-282,402r285,0r0,144r-497,0"},"a":{"d":"54,-142v0,-112,88,-170,316,-182v-6,-36,-40,-52,-96,-52v-42,0,-84,14,-144,42r-60,-112v177,-106,472,-106,472,168r0,278r-140,0r-12,-52r-4,0v-49,36,-108,64,-170,64v-104,0,-162,-72,-162,-154xm218,-156v0,23,18,36,54,36v40,0,71,-18,98,-38r0,-64v-122,4,-152,32,-152,66"},"b":{"d":"64,0r0,-696r172,0r0,162r-4,72v36,-32,82,-50,127,-50v121,0,199,100,199,253v0,237,-205,354,-342,205r-4,0r-14,54r-134,0xm236,-152v75,49,142,31,146,-104v3,-126,-85,-145,-146,-80r0,184"},"c":{"d":"62,-250v0,-166,138,-262,293,-262v78,0,147,26,189,66r-78,106v-91,-70,-228,-29,-228,90v0,76,51,124,121,124v49,0,90,-21,124,-42r68,108v-180,147,-489,64,-489,-190"},"d":{"d":"42,-250v0,-164,104,-262,209,-262v55,0,88,20,119,50v-9,-71,-6,-154,-6,-234r172,0r0,696r-140,0r-12,-46r-4,0v-35,34,-84,58,-129,58v-127,0,-209,-100,-209,-262xm218,-252v0,90,29,124,78,124v28,0,49,-8,68,-36r0,-184v-69,-50,-146,-28,-146,96"},"e":{"d":"50,-250v0,-164,128,-262,262,-262v184,0,263,145,231,314r-317,0v26,103,160,93,248,50r56,102v-190,123,-480,45,-480,-204xm224,-310r170,0v0,-40,-20,-72,-78,-72v-43,0,-80,20,-92,72"},"f":{"d":"588,-682r-32,126v-62,-22,-192,-41,-182,56r158,0r0,134r-158,0r0,366r-172,0r0,-366r-128,0r0,-128v41,-4,91,0,128,-8v0,-112,68,-206,232,-206v60,0,114,14,154,26"},"g":{"d":"183,54v0,32,46,46,113,46v67,0,116,-18,116,-46v1,-53,-155,-17,-204,-36v-17,12,-25,22,-25,36xm44,82v0,-41,26,-72,76,-96r0,-4v-28,-18,-50,-44,-50,-86v0,-34,25,-70,60,-94r0,-4v-38,-24,-68,-70,-68,-128v-1,-153,163,-209,306,-170r202,0r0,124r-90,0v7,12,14,32,14,52v2,139,-135,184,-274,159v-12,9,-16,15,-16,29v0,41,112,30,163,30v132,0,208,38,208,130v0,108,-119,182,-306,182v-124,0,-225,-34,-225,-124xm283,-260v33,0,61,-22,61,-70v0,-46,-28,-68,-61,-68v-33,0,-60,22,-60,68v0,48,27,70,60,70"},"h":{"d":"64,0r0,-696r172,0r0,162r-9,88v33,-32,87,-66,161,-66v110,0,158,80,158,204r0,308r-172,0r0,-286v9,-105,-94,-93,-138,-42r0,328r-172,0"},"i":{"d":"74,-366r0,-134r362,0r0,500r-172,0r0,-366r-190,0xm344,-562v-64,0,-110,-40,-110,-100v0,-60,46,-102,110,-102v64,0,110,42,110,102v0,60,-46,100,-110,100"},"j":{"d":"74,-366r0,-134r362,0r0,454v0,122,-52,234,-241,234v-65,0,-114,-14,-158,-34r49,-122v42,18,71,22,97,22v61,0,81,-26,81,-94r0,-326r-190,0xm344,-562v-64,0,-110,-40,-110,-100v0,-60,46,-102,110,-102v64,0,110,42,110,102v0,60,-46,100,-110,100"},"k":{"d":"64,0r0,-696r172,0r0,374r4,0r152,-178r186,0r-185,208r197,292r-186,0r-110,-186r-58,64r0,122r-172,0"},"l":{"d":"54,-562r0,-134r308,0r0,496v7,90,79,82,147,60r37,126v-54,16,-90,26,-155,26v-133,0,-201,-88,-201,-218r0,-356r-136,0"},"m":{"d":"26,0r0,-500r129,0r12,61r4,0v17,-39,47,-73,106,-73v41,0,73,28,84,80v14,-42,51,-80,107,-80v70,0,112,64,112,164r0,348r-162,0r0,-336v0,-21,-4,-30,-17,-30v-13,0,-24,12,-33,38r0,328r-130,0r0,-336v0,-21,-7,-30,-20,-30v-12,0,-21,12,-30,38r0,328r-162,0"},"n":{"d":"64,0r0,-500r140,0r12,60r4,0v40,-38,94,-72,167,-72v111,0,159,80,159,204r0,308r-172,0r0,-286v9,-105,-94,-93,-138,-42r0,328r-172,0"},"o":{"d":"42,-250v0,-166,126,-262,258,-262v132,0,258,96,258,262v0,166,-126,262,-258,262v-132,0,-258,-96,-258,-262xm218,-250v0,76,24,124,82,124v58,0,82,-48,82,-124v0,-76,-24,-124,-82,-124v-58,0,-82,48,-82,124"},"p":{"d":"230,-38v7,66,6,141,6,214r-172,0r0,-676r140,0r12,46r4,0v38,-34,89,-58,140,-58v121,0,198,100,198,254v0,172,-104,270,-213,270v-43,0,-82,-18,-115,-50xm236,-152v75,49,142,31,146,-104v3,-126,-85,-145,-146,-80r0,184"},"q":{"d":"42,-250v0,-164,104,-262,209,-262v54,0,94,18,133,62r4,0r14,-50r134,0r0,676r-172,0r0,-143r7,-71v-32,30,-79,50,-120,50v-127,0,-209,-100,-209,-262xm218,-252v0,90,29,124,78,124v28,0,49,-8,68,-36r0,-184v-69,-50,-146,-28,-146,96"},"r":{"d":"104,0r0,-500r141,0r13,106r4,0v63,-110,177,-144,290,-98r-34,144v-109,-32,-188,-14,-242,100r0,248r-172,0"},"s":{"d":"46,-64r76,-106v58,34,114,56,172,56v59,0,81,-10,81,-30v0,-26,-58,-39,-123,-58v-82,-24,-175,-66,-175,-148v0,-98,94,-162,240,-162v94,0,168,37,221,70r-76,102v-46,-26,-93,-46,-141,-46v-52,0,-73,8,-73,28v0,26,55,37,119,54v85,23,179,60,179,150v0,94,-89,166,-256,166v-86,0,-180,-34,-244,-76"},"t":{"d":"162,-212r0,-154r-120,0r0,-128r128,-6r22,-130r142,0r0,130r198,0r0,134r-198,0r0,151v-10,111,113,102,188,77r30,124v-44,12,-98,26,-166,26v-164,0,-224,-90,-224,-224"},"u":{"d":"532,-500r0,500r-140,0r-12,-66r-4,0v-42,48,-92,78,-162,78v-112,0,-158,-80,-158,-204r0,-308r172,0r0,286v0,56,12,80,57,80v29,0,49,-8,75,-44r0,-322r172,0"},"v":{"d":"204,0r-180,-500r172,0r65,218v15,50,27,102,41,156r4,0v14,-54,26,-106,41,-156r65,-218r164,0r-174,500r-198,0"},"w":{"d":"74,0r-72,-500r168,0r32,362r3,0v8,-98,28,-188,41,-282r116,0r45,282r4,0r31,-362r156,0r-66,500r-198,0r-32,-282r-4,0r-30,282r-194,0"},"x":{"d":"27,0r167,-260r-157,-240r184,0r90,156r4,0v11,-28,23,-59,36,-86r33,-70r179,0r-158,260r167,240r-184,0r-100,-156r-4,0r-78,156r-179,0"},"y":{"d":"97,48v68,19,129,-10,137,-66r-210,-482r170,0r70,192v17,48,31,98,45,152r4,0v12,-51,28,-102,43,-152r60,-192r162,0r-188,492v-58,162,-150,221,-323,186"},"z":{"d":"70,0r0,-92r231,-274r-202,0r0,-134r439,0r0,92r-232,274r239,0r0,134r-475,0"},"\u00c7":{"d":"481,-188r94,104v-49,57,-112,88,-181,95r-12,29v34,12,58,34,58,76v0,72,-88,104,-190,108r-12,-66v83,-4,120,-59,24,-82r35,-70v-138,-27,-246,-135,-246,-326v0,-218,142,-342,318,-342v84,0,152,40,198,84r-94,106v-101,-92,-246,-26,-246,146v0,177,159,245,254,138"},"\u011e":{"d":"40,-320v0,-220,137,-342,306,-342v88,0,151,40,194,84r-94,106v-94,-91,-229,-27,-229,146v0,122,45,190,138,190v16,0,34,-4,44,-12r0,-90r-81,0r0,-140r234,0r0,310v-45,40,-124,80,-207,80v-167,0,-305,-110,-305,-332xm330,-700v-90,0,-134,-46,-142,-124r92,0v6,24,20,40,50,40v30,0,44,-16,50,-40r92,0v-8,78,-52,124,-142,124"},"\u0130":{"d":"66,0r0,-144r148,0r0,-362r-148,0r0,-144r468,0r0,144r-148,0r0,362r148,0r0,144r-468,0xm300,-696v-56,0,-96,-36,-96,-86v0,-50,40,-86,96,-86v56,0,96,36,96,86v0,50,-40,86,-96,86"},"\u00d6":{"d":"300,12v-158,0,-266,-126,-266,-340v0,-214,108,-334,266,-334v158,0,266,121,266,334v0,214,-108,340,-266,340xm300,-136v56,0,90,-74,90,-192v0,-118,-34,-186,-90,-186v-56,0,-90,68,-90,186v0,118,34,192,90,192xm196,-694v-46,0,-78,-34,-78,-78v0,-44,32,-78,78,-78v46,0,78,34,78,78v0,44,-32,78,-78,78xm404,-694v-46,0,-78,-34,-78,-78v0,-44,32,-78,78,-78v46,0,78,34,78,78v0,44,-32,78,-78,78"},"\u015e":{"d":"242,-470v0,45,127,74,177,96v84,37,137,88,137,178v0,98,-74,187,-209,205r-13,31v34,12,58,34,58,76v0,72,-88,104,-190,108r-12,-66v83,-4,120,-59,24,-82r34,-67v-71,-9,-145,-39,-204,-90r98,-118v49,37,107,63,158,63v59,0,80,-17,80,-46v0,-48,-129,-69,-175,-97v-75,-28,-137,-87,-137,-181v0,-111,100,-202,248,-202v77,0,159,28,222,87r-86,108v-47,-31,-84,-47,-136,-47v-48,0,-74,15,-74,44"},"\u00dc":{"d":"58,-252r0,-398r172,0r0,418v0,56,17,96,72,96v55,0,74,-40,74,-96r0,-418r166,0r0,398v0,162,-70,264,-240,264v-170,0,-244,-102,-244,-264xm196,-694v-46,0,-78,-34,-78,-78v0,-44,32,-78,78,-78v46,0,78,34,78,78v0,44,-32,78,-78,78xm404,-694v-46,0,-78,-34,-78,-78v0,-44,32,-78,78,-78v46,0,78,34,78,78v0,44,-32,78,-78,78"},"\u00e7":{"d":"387,9r-13,31v34,12,58,34,58,76v0,72,-88,104,-190,108r-12,-66v83,-4,120,-59,24,-82r34,-68v-131,-20,-226,-111,-226,-258v0,-166,138,-262,293,-262v78,0,147,26,189,66r-78,106v-91,-70,-228,-29,-228,90v0,76,51,124,121,124v49,0,90,-21,124,-42r68,108v-49,40,-109,61,-164,69"},"\u011f":{"d":"183,54v0,32,46,46,113,46v67,0,116,-18,116,-46v1,-53,-155,-17,-204,-36v-17,12,-25,22,-25,36xm44,82v0,-41,26,-72,76,-96r0,-4v-28,-18,-50,-44,-50,-86v0,-34,25,-70,60,-94r0,-4v-38,-24,-68,-70,-68,-128v-1,-153,163,-209,306,-170r202,0r0,124r-90,0v7,12,14,32,14,52v2,139,-135,184,-274,159v-12,9,-16,15,-16,29v0,41,112,30,163,30v132,0,208,38,208,130v0,108,-119,182,-306,182v-124,0,-225,-34,-225,-124xm283,-260v33,0,61,-22,61,-70v0,-46,-28,-68,-61,-68v-33,0,-60,22,-60,68v0,48,27,70,60,70xm303,-574v-103,0,-152,-76,-154,-164r94,0v5,42,23,72,60,72v37,0,55,-30,60,-72r94,0v-2,88,-51,164,-154,164"},"\u0131":{"d":"74,-366r0,-134r362,0r0,500r-172,0r0,-366r-190,0"},"\u00f6":{"d":"42,-250v0,-166,126,-262,258,-262v132,0,258,96,258,262v0,166,-126,262,-258,262v-132,0,-258,-96,-258,-262xm218,-250v0,76,24,124,82,124v58,0,82,-48,82,-124v0,-76,-24,-124,-82,-124v-58,0,-82,48,-82,124xm186,-564v-52,0,-88,-38,-88,-88v0,-50,36,-88,88,-88v52,0,88,38,88,88v0,50,-36,88,-88,88xm414,-564v-52,0,-88,-38,-88,-88v0,-50,36,-88,88,-88v52,0,88,38,88,88v0,50,-36,88,-88,88"},"\u015f":{"d":"538,-442r-76,102v-46,-26,-93,-46,-141,-46v-52,0,-73,8,-73,28v0,26,55,37,119,54v85,23,179,60,179,150v0,80,-65,145,-189,162r-13,32v34,12,58,34,58,76v0,72,-88,104,-190,108r-12,-66v83,-4,120,-59,24,-82r33,-66v-76,-7,-155,-37,-211,-74r76,-106v58,34,114,56,172,56v59,0,81,-10,81,-30v0,-26,-58,-39,-123,-58v-82,-24,-175,-66,-175,-148v0,-98,94,-162,240,-162v94,0,168,37,221,70"},"\u00fc":{"d":"532,-500r0,500r-140,0r-12,-66r-4,0v-42,48,-92,78,-162,78v-112,0,-158,-80,-158,-204r0,-308r172,0r0,286v0,56,12,80,57,80v29,0,49,-8,75,-44r0,-322r172,0xm182,-564v-52,0,-88,-38,-88,-88v0,-50,36,-88,88,-88v52,0,88,38,88,88v0,50,-36,88,-88,88xm410,-564v-52,0,-88,-38,-88,-88v0,-50,36,-88,88,-88v52,0,88,38,88,88v0,50,-36,88,-88,88"},"&":{"d":"192,-236v-31,50,-8,121,60,118v14,0,29,-5,43,-13v-37,-32,-72,-68,-103,-105xm244,-550v-34,-1,-40,89,-17,124v30,-23,51,-48,51,-82v0,-28,-9,-42,-34,-42xm436,-374r156,0v-19,76,-46,147,-85,213v30,18,58,30,83,35r-40,138v-47,-11,-93,-30,-139,-59v-49,37,-109,59,-181,59v-144,0,-214,-90,-214,-188v0,-85,45,-136,98,-175v-27,-49,-42,-96,-42,-135v0,-94,64,-176,168,-176v104,0,168,60,168,154v0,82,-58,132,-116,178v28,32,62,63,98,91v20,-38,36,-83,46,-135"},"0":{"d":"300,12v-149,0,-250,-115,-250,-332v0,-217,101,-326,250,-326v149,0,250,109,250,326v0,217,-101,332,-250,332xm300,-514v-53,0,-98,36,-98,194v0,158,45,200,98,200v53,0,98,-42,98,-200v0,-158,-45,-194,-98,-194xm300,-240v-46,0,-80,-32,-80,-80v0,-48,34,-80,80,-80v46,0,80,32,80,80v0,48,-34,80,-80,80"},"1":{"d":"405,-138r136,0r0,138r-466,0r0,-138r158,0r0,-328r-129,0r0,-106v76,-14,125,-32,175,-62r126,0r0,496"},"2":{"d":"52,0r0,-98v169,-138,293,-244,293,-330v0,-57,-36,-84,-92,-84v-47,0,-84,30,-118,60r-91,-92v69,-70,133,-102,233,-102v136,0,231,82,231,208v0,102,-106,214,-210,302v79,-10,157,-8,242,-8r0,144r-488,0"},"3":{"d":"36,-78r78,-108v42,36,96,60,144,60v62,0,106,-20,106,-60v0,-48,-35,-76,-176,-76r0,-120v114,0,156,-28,156,-72v0,-38,-30,-58,-80,-58v-46,0,-82,18,-126,52r-86,-104v65,-52,138,-82,220,-82v146,0,244,64,244,179v0,61,-41,107,-116,137r0,4v78,22,136,72,136,152v0,120,-123,186,-260,186v-108,0,-190,-34,-240,-90"},"4":{"d":"195,-272r135,0r0,-72v0,-43,4,-107,6,-150r-4,0xm563,-272r0,130r-73,0r0,142r-160,0r0,-142r-297,0r0,-120r245,-372r212,0r0,362r73,0"},"5":{"d":"42,-78r76,-108v41,34,88,60,138,60v66,0,108,-26,108,-82v0,-93,-128,-104,-198,-52r-74,-48r16,-326r400,0r0,144r-252,0r-8,92v145,-36,288,28,288,186v0,142,-120,224,-254,224v-109,0,-186,-38,-240,-90"},"6":{"d":"312,-116v41,0,82,-21,82,-88v0,-56,-34,-76,-78,-76v-33,0,-67,15,-100,54v17,90,62,110,96,110xm542,-566r-90,102v-94,-78,-237,-60,-241,129v121,-121,340,-72,339,131v0,136,-109,216,-234,216v-127,0,-262,-88,-262,-318v0,-230,135,-340,276,-340v95,0,168,38,212,80"},"7":{"d":"180,0v13,-200,51,-327,179,-490r-300,0r0,-144r483,0r0,106v-158,171,-177,281,-190,528r-172,0"},"8":{"d":"206,-182v0,50,44,76,96,76v46,0,82,-18,82,-66v0,-46,-52,-64,-135,-96v-26,22,-43,54,-43,86xm340,-378v55,-49,50,-152,-40,-150v-38,0,-70,18,-70,62v0,42,43,64,110,88xm58,-162v0,-74,49,-118,113,-150r0,-4v-53,-38,-91,-84,-91,-150v0,-112,93,-180,224,-180v127,0,212,68,212,176v0,58,-41,104,-89,133r0,4v66,33,117,83,117,167v0,102,-88,178,-246,178v-148,0,-240,-70,-240,-174"},"9":{"d":"282,-354v33,0,67,-15,100,-54v-17,-90,-62,-110,-96,-110v-41,0,-82,21,-82,88v0,56,34,76,78,76xm56,-68r90,-102v94,78,237,60,241,-129v-121,121,-340,72,-339,-131v0,-136,109,-216,234,-216v127,0,262,88,262,318v0,230,-135,340,-276,340v-95,0,-168,-38,-212,-80"},".":{"d":"170,-118v0,-71,52,-130,130,-130v78,0,130,59,130,130v0,72,-52,130,-130,130v-78,0,-130,-58,-130,-130"},",":{"d":"218,218r-41,-98v89,-29,132,-77,131,-132v-69,2,-128,-38,-128,-113v0,-67,55,-113,125,-113v90,0,137,70,137,188v0,131,-75,226,-224,268"},":":{"d":"170,-428v0,-71,52,-130,130,-130v78,0,130,59,130,130v0,72,-52,130,-130,130v-78,0,-130,-58,-130,-130xm170,-118v0,-71,52,-130,130,-130v78,0,130,59,130,130v0,72,-52,130,-130,130v-78,0,-130,-58,-130,-130"},";":{"d":"300,-298v-78,0,-130,-58,-130,-130v0,-71,52,-130,130,-130v78,0,130,59,130,130v0,72,-52,130,-130,130xm218,218r-41,-98v89,-29,132,-77,131,-132v-69,2,-128,-38,-128,-113v0,-67,55,-113,125,-113v90,0,137,70,137,188v0,131,-75,226,-224,268"},"!":{"d":"244,-264r-24,-258r-6,-148r172,0v-3,142,-18,273,-30,406r-112,0xm190,-99v0,-64,46,-109,110,-109v64,0,110,45,110,109v0,64,-46,111,-110,111v-64,0,-110,-47,-110,-111"},"?":{"d":"208,-264v-20,-130,132,-166,132,-230v0,-36,-30,-50,-60,-50v-38,0,-63,18,-92,42r-94,-86v49,-56,118,-94,198,-94v116,0,212,50,212,166v0,130,-156,142,-146,252r-150,0xm176,-99v0,-64,46,-109,110,-109v64,0,110,45,110,109v0,64,-46,111,-110,111v-64,0,-110,-47,-110,-111"},"'":{"d":"248,-284r-38,-242r-6,-158r192,0r-6,158r-38,242r-104,0"},"\"":{"d":"108,-284r-38,-242r-6,-158r192,0r-6,158r-38,242r-104,0xm388,-284r-38,-242r-6,-158r192,0r-6,158r-38,242r-104,0"},"-":{"d":"64,-270r0,-120r472,0r0,120r-472,0"},"_":{"d":"60,48r480,0r0,126r-480,0r0,-126"},"(":{"d":"377,180v-127,-118,-207,-272,-207,-458v0,-186,80,-340,207,-458r95,74v-113,117,-160,230,-160,384v0,154,47,267,160,384"},")":{"d":"223,180r-95,-74v113,-117,160,-230,160,-384v0,-154,-47,-267,-160,-384r95,-74v127,118,207,272,207,458v0,186,-80,340,-207,458"},"[":{"d":"191,152r0,-860r303,0r0,90r-173,0r0,680r173,0r0,90r-303,0"},"]":{"d":"107,62r172,0r0,-680r-172,0r0,-90r303,0r0,860r-303,0r0,-90"},"{":{"d":"224,6v0,-138,70,-228,-124,-234r0,-100v194,-5,124,-96,124,-234v0,-110,57,-146,187,-146r83,0r0,90r-37,0v-76,0,-93,10,-93,62v0,51,4,98,4,156v0,80,-31,108,-104,120r0,4v73,12,104,40,104,120v0,58,-4,105,-4,156v0,52,17,62,93,62r37,0r0,90r-83,0v-130,0,-187,-36,-187,-146"},"}":{"d":"107,62r37,0v75,0,92,-10,92,-62v0,-51,-3,-98,-3,-156v0,-80,31,-108,104,-120r0,-4v-73,-12,-104,-40,-104,-120v0,-58,3,-105,3,-156v0,-52,-17,-62,-92,-62r-37,0r0,-90r83,0v130,0,187,36,187,146v0,138,-72,228,124,234r0,100v-196,5,-124,97,-124,234v0,110,-57,146,-187,146r-83,0r0,-90"},"\/":{"d":"536,-710r-330,870r-142,0r330,-870r142,0"},"|":{"d":"224,250r0,-1000r152,0r0,1000r-152,0"},"\\":{"d":"394,160r-330,-870r142,0r330,870r-142,0"},"*":{"d":"186,-83r-73,-50r93,-153r-150,-67r26,-82r160,39r14,-174r88,0r14,174r160,-39r26,82r-150,67r93,153r-73,50r-114,-136"},"@":{"d":"552,-400r0,300r-90,0r-12,-48r-4,0v-24,36,-60,60,-115,60v-74,0,-127,-67,-127,-144v0,-110,98,-153,244,-172v4,-80,-36,-142,-125,-142v-83,0,-183,76,-183,296v0,206,103,296,205,296v59,0,91,-14,129,-36r48,84v-239,133,-498,16,-498,-348v0,-278,140,-394,303,-394v157,0,225,109,225,248xm328,-236v-1,53,80,42,102,12r0,-78v-77,12,-102,28,-102,66"},"#":{"d":"114,0r22,-180r-72,0r0,-108r84,0r12,-96r-76,0r0,-108r90,0r20,-158r96,0r-18,158r92,0r20,-158r96,0r-18,158r78,0r0,108r-92,0r-12,96r84,0r0,108r-96,0r-22,180r-98,0r22,-180r-92,0r-22,180r-98,0xm246,-288r92,0r12,-96r-92,0"},"$":{"d":"520,-530r-84,98v-48,-32,-85,-48,-136,-48v-36,0,-54,11,-54,32v0,56,282,52,282,234v0,83,-57,152,-169,173r0,151r-112,0r0,-146v-63,-8,-139,-35,-191,-80r74,-116v68,40,120,60,178,60v37,0,56,-10,56,-30v0,-68,-282,-56,-282,-244v0,-87,62,-149,165,-167r0,-131r112,0r0,129v68,11,119,42,161,85"},"\u20ac":{"d":"496,-168r94,88v-147,163,-444,102,-487,-128r-63,0r0,-78r52,-4r1,-46r-53,0r0,-78r64,-5v42,-218,319,-302,478,-149r-94,92v-71,-61,-189,-50,-211,56r235,0r0,84r-248,0r1,44r207,0r0,84r-192,0v29,102,154,114,216,40"},"\u20a1":{"d":"358,-514r-45,378v10,6,21,10,33,13r46,-389v-9,-2,-22,-2,-34,-2xm266,-193r36,-300v-63,37,-74,219,-36,300xm476,-168r94,88v-51,55,-114,86,-186,91r-12,99r-54,0r12,-100v-11,-1,-23,-2,-34,-4r-12,104r-54,0r14,-120v-103,-42,-172,-143,-172,-302v0,-188,97,-305,248,-329r12,-103r54,0r-12,98r34,2r12,-100r54,0r-13,112v36,13,71,34,101,64r-94,92v-8,-6,-16,-11,-24,-16r-44,370v30,-6,54,-22,76,-46"},"\u20a4":{"d":"281,-148r0,4r276,0r0,144r-494,0r0,-106v50,-19,93,-55,109,-104r-104,0r0,-78r103,-6v-4,-15,-9,-29,-15,-44r-88,0r0,-78r64,-5v-8,-139,96,-225,235,-225v81,0,140,28,190,84r-92,92v-51,-61,-174,-53,-171,48r168,0r0,84r-152,0v5,14,9,29,12,44r140,0r0,84r-140,0v-7,21,-20,40,-41,62"},"\u20a6":{"d":"402,-298r-5,-44r-50,0r14,44r41,0xm422,-123r-13,-111r-27,0r36,111r4,0xm203,-298r48,0r-14,-44r-39,0xm178,-511r12,105r26,0r-34,-105r-4,0xm580,-342r-68,0r0,44r68,0r0,64r-68,0r0,234r-156,0r-84,-234r-62,0r0,234r-122,0r0,-234r-68,0r0,-58r68,-6r0,-44r-68,0r0,-58r68,-6r0,-228r156,0r82,228r64,0r0,-228r122,0r0,228r68,0r0,64"},"\u20a7":{"d":"240,-309v59,4,99,-14,114,-57r-114,0r0,57xm354,-470v-16,-47,-54,-62,-114,-58r0,58r114,0xm578,-470r0,104r-62,0v-27,122,-137,170,-276,163r0,203r-162,0r0,-366r-65,0r0,-98r65,-5r0,-165r196,0v118,0,219,43,242,164r62,0"},"\u20ab":{"d":"98,0r0,-84r434,0r0,84r-434,0xm358,-260r0,-94v-46,-36,-128,-26,-130,47v-4,91,87,96,130,47xm498,-604r71,0r0,78r-71,6r0,392r-116,0v-5,-11,-4,-26,-12,-34v-29,28,-70,44,-114,44v-104,0,-172,-68,-172,-190v0,-156,175,-229,278,-144r-4,-68r-154,0r0,-84r154,0r0,-42r140,0r0,42"},"\u20b1":{"d":"240,-398r121,0v2,-12,1,-27,0,-40r-121,0r0,40xm240,-309v41,2,74,-4,94,-25r-94,0r0,25xm336,-502v-21,-23,-53,-28,-96,-26r0,26r96,0xm578,-502r0,64r-58,0r1,40r57,0r0,64r-71,0v-40,99,-141,137,-267,131r0,203r-162,0r0,-334r-64,0r0,-58r64,-5r0,-41r-64,0r0,-58r64,-5r0,-133v192,0,378,-24,430,132r70,0"},"\u20b2":{"d":"330,-234r0,-140r212,0r0,312v-40,34,-90,59,-142,69r0,103r-112,0r0,-103v-131,-24,-228,-131,-228,-319v0,-183,93,-298,228,-327r0,-105r112,0r0,102v53,10,103,37,144,78r-94,92v-30,-26,-60,-42,-100,-42v-76,0,-118,72,-118,196v0,143,53,208,158,188r0,-104r-60,0"},"\u20b5":{"d":"320,-132r0,-372v-50,24,-76,89,-76,186v0,97,27,160,76,186xm476,-168r94,88v-44,48,-98,78,-158,88r0,102r-92,0r0,-101v-144,-18,-248,-125,-248,-321v0,-190,101,-307,248,-330r0,-90r92,0r0,89v55,8,108,33,150,75r-94,92v-18,-13,-36,-24,-56,-31r0,381v24,-7,45,-22,64,-42"},"\u20b9":{"d":"523,-634r0,84r-146,0v35,24,59,57,68,96r78,0r0,84r-76,0v-13,77,-58,128,-122,157r181,213r-191,0r-151,-182r-83,0r0,-136v82,3,172,0,191,-52r-191,0r0,-78v60,-6,126,-7,193,-6v-19,-49,-115,-45,-193,-44r0,-136r442,0"},"\u20ba":{"d":"278,-148v84,-13,146,-62,130,-140r141,-32v5,19,7,40,7,49v0,187,-160,291,-450,283r0,-216r-78,38r0,-92r78,-38r0,-48r-78,38r0,-92r78,-38r0,-198r172,0r0,114r151,-74r0,92r-151,74r0,48r151,-74r0,92r-151,74r0,140"},"%":{"d":"175,-308v-86,0,-152,-68,-152,-171v0,-103,66,-167,152,-167v86,0,152,64,152,167v0,103,-66,171,-152,171xm175,-398v18,0,36,-17,36,-81v0,-64,-18,-77,-36,-77v-18,0,-36,13,-36,77v0,64,18,81,36,81xm99,-26r-86,-84r188,-168r58,54xm503,-624r86,84r-188,168r-58,-54xm425,12v-86,0,-152,-68,-152,-171v0,-103,66,-167,152,-167v86,0,152,64,152,167v0,103,-66,171,-152,171xm425,-78v18,0,36,-17,36,-81v0,-64,-18,-77,-36,-77v-18,0,-36,13,-36,77v0,64,18,81,36,81"},"+":{"d":"238,-90r0,-180r-174,0r0,-120r174,0r0,-180r124,0r0,180r174,0r0,120r-174,0r0,180r-124,0"},"=":{"d":"64,-390r0,-120r472,0r0,120r-472,0xm64,-150r0,-120r472,0r0,120r-472,0"},"<":{"d":"114,-274r0,-116r392,-250r0,154r-252,152r0,4r252,152r0,154"},">":{"d":"486,-390r0,116r-392,250r0,-154r252,-152r0,-4r-252,-152r0,-154"},"^":{"d":"76,-270r156,-400r136,0r156,400r-140,0r-82,-246r-4,0r-82,246r-140,0"},"~":{"d":"144,-226r-102,-48v46,-108,108,-152,174,-152v84,0,116,72,170,72v27,0,52,-30,70,-80r102,48v-46,108,-108,152,-174,152v-84,0,-116,-72,-170,-72v-26,0,-52,30,-70,80"},"`":{"d":"264,-574r-138,-174r174,0r88,174r-124,0"},"\u00a0":{}}});


/*!
 * The following copyright notice may not be removed under any circumstances.
 * 
 * Copyright:
 * Copyright 2010, 2012 Adobe Systems Incorporated. All Rights Reserved.
 * 
 * Trademark:
 * Source is a trademark of Adobe Systems Incorporated in the United States and/or
 * other countries.
 * 
 * Manufacturer:
 * Adobe Systems Incorporated
 * 
 * Designer:
 * Paul D. Hunt
 * 
 * Vendor URL:
 * http://www.adobe.com/type
 * 
 * License information:
 * http://www.adobe.com/type/legal.html
 */
Rafael.registerFont({"w":600,"face":{"font-family":"Source Code Pro Bold","font-weight":700,"font-stretch":"normal","units-per-em":"1000","panose-1":"2 11 7 9 3 4 3 2 2 4","ascent":"750","descent":"-250","x-height":"12","bbox":"4 -855 596 250","underline-thickness":"50","underline-position":"-50","stemh":"115","stemv":"150","unicode-range":"U+0020-U+20BA"},"glyphs":{" ":{},"A":{"d":"229,-270r137,0r-67,-270r-4,0xm435,0r-39,-155r-197,0r-40,155r-150,0r203,-652r176,0r203,652r-156,0"},"B":{"d":"84,0r0,-652v196,2,446,-32,443,162v0,58,-35,121,-112,141r0,4v93,17,142,66,142,153v0,133,-109,192,-250,192r-223,0xm231,-389v83,7,160,-14,152,-80v8,-66,-75,-73,-152,-69r0,149xm231,-114r64,0v80,0,118,-30,118,-89v0,-79,-90,-87,-182,-82r0,171"},"C":{"d":"55,-322v0,-216,137,-342,311,-342v83,0,149,40,193,83r-81,91v-31,-28,-65,-47,-112,-47v-92,0,-160,79,-160,210v0,195,176,275,282,154r81,89v-54,63,-124,96,-206,96v-168,0,-308,-115,-308,-334"},"D":{"d":"65,0r0,-652r177,0v189,0,314,99,314,323v0,224,-125,329,-306,329r-185,0xm213,-119v122,5,192,-45,192,-210v0,-165,-71,-208,-192,-204r0,414"},"E":{"d":"94,0r0,-652r430,0r0,124r-283,0r0,131r240,0r0,123r-240,0r0,150r293,0r0,124r-440,0"},"F":{"d":"108,0r0,-652r430,0r0,124r-283,0r0,151r241,0r0,124r-241,0r0,253r-147,0"},"G":{"d":"44,-322v0,-218,132,-342,301,-342v88,0,149,41,191,83r-81,91v-28,-28,-58,-47,-110,-47v-85,0,-149,79,-149,210v0,134,52,212,155,212v25,0,50,-7,64,-20r0,-112r-95,0r0,-120r227,0r0,300v-44,41,-121,79,-204,79v-167,0,-299,-115,-299,-334"},"H":{"d":"64,0r0,-652r147,0r0,251r178,0r0,-251r147,0r0,652r-147,0r0,-272r-178,0r0,272r-147,0"},"I":{"d":"74,0r0,-124r152,0r0,-404r-152,0r0,-124r452,0r0,124r-152,0r0,404r152,0r0,124r-452,0"},"J":{"d":"59,-96r85,-91v38,47,81,72,124,72v67,0,101,-29,101,-119r0,-295r-255,0r0,-123r402,0r0,430v0,128,-63,234,-243,234v-72,0,-157,-28,-214,-108"},"K":{"d":"68,0r0,-652r149,0r0,267r3,0r193,-267r162,0r-195,260r214,392r-163,0r-138,-275r-76,100r0,175r-149,0"},"L":{"d":"107,0r0,-652r147,0r0,528r290,0r0,124r-437,0"},"M":{"d":"65,0r0,-652r147,0r66,231r22,90r3,0r85,-321r147,0r0,652r-119,0v-2,-171,2,-352,19,-508r-3,0r-51,179r-50,155r-65,0r-50,-155r-49,-179r-4,0v17,153,22,339,19,508r-117,0"},"N":{"d":"66,0r0,-652r150,0r138,325r56,143r4,0v-21,-139,-24,-306,-21,-468r141,0r0,652r-150,0r-138,-325r-56,-142r-4,0v21,141,24,303,21,467r-141,0"},"O":{"d":"300,12v-155,0,-262,-128,-262,-341v0,-213,107,-335,262,-335v155,0,262,123,262,335v0,213,-107,341,-262,341xm300,-115v68,0,111,-83,111,-214v0,-130,-43,-208,-111,-208v-68,0,-111,78,-111,208v0,131,43,214,111,214"},"P":{"d":"74,0r0,-652r238,0v141,0,255,52,255,210v0,153,-117,221,-255,221r-91,0r0,221r-147,0xm221,-338r82,0v81,0,119,-36,119,-104v0,-98,-100,-96,-201,-93r0,197"},"Q":{"d":"297,-537v-69,0,-110,78,-110,208v0,131,41,214,110,214v68,0,110,-83,110,-214v0,-130,-42,-208,-110,-208xm554,47r26,110v-22,12,-55,21,-96,21v-127,0,-215,-73,-256,-175v-117,-33,-192,-152,-192,-332v0,-213,105,-335,261,-335v155,0,260,123,260,335v0,171,-68,288,-175,327v31,62,111,76,172,49"},"R":{"d":"217,-535r0,183r72,0v78,0,119,-33,119,-97v0,-90,-96,-89,-191,-86xm584,0r-165,0r-125,-235r-77,0r0,235r-147,0r0,-652r231,0v138,0,252,48,252,203v0,96,-47,157,-116,188"},"S":{"d":"50,-82r85,-101v49,40,110,68,167,68v68,0,98,-24,98,-63v0,-62,-128,-87,-185,-114v-70,-33,-139,-83,-139,-178v0,-108,98,-194,239,-194v79,0,158,30,217,86r-75,93v-45,-33,-86,-52,-142,-52v-57,0,-90,22,-90,59v0,60,130,85,186,111v83,38,140,85,140,177v0,108,-91,202,-253,202v-88,0,-178,-32,-248,-94"},"T":{"d":"226,0r0,-528r-195,0r0,-124r538,0r0,124r-195,0r0,528r-148,0"},"U":{"d":"64,-251r0,-401r147,0r0,416v0,78,29,121,91,121v62,0,92,-43,92,-121r0,-416r142,0r0,401v0,169,-76,263,-234,263v-159,0,-238,-94,-238,-263"},"V":{"d":"212,0r-197,-652r156,0r130,513r4,0r130,-513r150,0r-196,652r-177,0"},"W":{"d":"91,0r-87,-652r150,0r21,347v1,56,3,111,4,166r3,0v10,-55,21,-112,35,-166r45,-181r89,0r43,181v10,53,24,110,34,166r4,0v2,-56,3,-112,5,-166r19,-347r140,0r-81,652r-154,0r-41,-205v-8,-41,-15,-86,-18,-125r-3,0v-12,113,-38,223,-57,330r-151,0"},"X":{"d":"18,0r190,-335r-179,-317r165,0r63,123r50,105r4,0v33,-88,65,-149,102,-228r158,0r-179,324r190,328r-164,0r-71,-133v-18,-34,-34,-67,-52,-107r-4,0v-36,88,-75,159,-116,240r-157,0"},"Y":{"d":"226,0r0,-220r-210,-432r158,0r125,306r4,0r127,-306r154,0r-210,432r0,220r-148,0"},"Z":{"d":"56,0r0,-89r306,-440r-277,0r0,-123r458,0r0,89r-305,439r309,0r0,124r-491,0"},"a":{"d":"61,-138v0,-111,92,-167,327,-181v-5,-45,-39,-72,-106,-72v-48,0,-95,18,-151,46r-52,-96v68,-39,147,-67,232,-67v139,0,224,72,224,224r0,284r-120,0r-11,-56r-4,0v-50,38,-112,68,-176,68v-100,0,-163,-66,-163,-150xm202,-149v0,32,27,47,69,47v44,0,82,-20,117,-47r0,-82v-146,8,-186,39,-186,82"},"b":{"d":"72,0r0,-701r147,0r0,172r-4,78v39,-36,90,-57,138,-57v124,0,200,99,200,251v0,238,-209,350,-350,203r-4,0r-12,54r-115,0xm219,-141v89,67,179,37,183,-113v4,-144,-109,-170,-183,-88r0,201"},"c":{"d":"67,-248v0,-165,134,-260,287,-260v78,0,144,28,186,67r-68,91v-98,-80,-254,-32,-254,102v0,86,57,141,139,141v52,0,96,-22,131,-47r60,93v-173,147,-481,66,-481,-187"},"d":{"d":"47,-248v0,-222,205,-332,339,-207v-7,-77,-5,-163,-5,-246r147,0r0,701r-120,0r-11,-51r-3,0v-37,36,-88,63,-138,63v-126,0,-209,-98,-209,-260xm198,-250v0,150,112,181,183,96r0,-201v-81,-68,-183,-33,-183,105"},"e":{"d":"55,-248v0,-162,126,-260,258,-260v176,0,256,136,227,303r-334,0v17,122,176,126,272,71r48,88v-181,122,-471,45,-471,-202xm204,-302r209,0v0,-56,-30,-94,-97,-94v-53,0,-99,30,-112,94"},"f":{"d":"585,-686r-28,108v-77,-31,-216,-36,-197,82r171,0r0,115r-171,0r0,381r-147,0r0,-381r-131,0r0,-109r131,-6v-4,-127,62,-217,222,-217v57,0,108,13,150,27"},"g":{"d":"172,62v0,37,48,57,126,57v79,0,134,-27,134,-61v0,-66,-163,-26,-225,-45v-25,16,-35,31,-35,49xm52,84v0,-40,26,-74,77,-99r0,-4v-27,-17,-50,-43,-50,-85v0,-33,24,-69,59,-93r0,-4v-36,-24,-65,-69,-65,-127v-1,-147,155,-208,294,-168r201,0r0,107r-101,0v12,15,23,40,23,66v3,136,-139,189,-273,156v-15,11,-22,20,-22,36v0,50,117,38,176,38v130,0,201,36,201,125v0,104,-115,179,-295,179v-129,0,-225,-38,-225,-127xm285,-246v41,0,76,-28,76,-82v0,-53,-35,-81,-76,-81v-41,0,-74,28,-74,81v0,54,33,82,74,82"},"h":{"d":"72,0r0,-701r147,0r0,172r-8,95v39,-38,93,-74,168,-74v111,0,161,77,161,202r0,306r-147,0r0,-287v0,-66,-19,-96,-73,-96v-40,0,-66,18,-101,52r0,331r-147,0"},"i":{"d":"79,-381r0,-115r346,0r0,496r-147,0r0,-381r-199,0xm345,-569v-57,0,-98,-35,-98,-89v0,-54,41,-92,98,-92v57,0,98,38,98,92v0,54,-41,89,-98,89"},"j":{"d":"79,-381r0,-115r346,0r0,466v0,121,-50,226,-230,226v-61,0,-110,-14,-153,-34r43,-105v40,18,72,24,101,24v71,0,92,-33,92,-105r0,-357r-199,0xm345,-569v-57,0,-98,-35,-98,-89v0,-54,41,-92,98,-92v57,0,98,38,98,92v0,54,-41,89,-98,89"},"k":{"d":"76,0r0,-701r147,0r0,405r4,0r182,-200r161,0r-188,204r203,292r-159,0r-130,-202r-73,77r0,125r-147,0"},"l":{"d":"62,-585r0,-116r291,0r0,513v5,96,85,92,158,65r33,108v-52,16,-87,27,-149,27v-125,0,-189,-80,-189,-206r0,-391r-144,0"},"m":{"d":"36,0r0,-496r110,0r11,62r4,0v19,-41,49,-74,106,-74v44,0,75,28,87,81v18,-45,53,-81,109,-81v69,0,110,61,110,160r0,348r-138,0r0,-337v0,-31,-8,-46,-28,-46v-19,0,-33,16,-46,48r0,335r-113,0r0,-337v0,-31,-10,-46,-29,-46v-19,0,-31,16,-45,48r0,335r-138,0"},"n":{"d":"72,0r0,-496r120,0r11,66r4,0v43,-42,97,-78,171,-78v112,0,162,77,162,202r0,306r-147,0r0,-287v0,-66,-19,-96,-73,-96v-40,0,-66,18,-101,52r0,331r-147,0"},"o":{"d":"47,-248v0,-165,122,-260,253,-260v131,0,253,95,253,260v0,165,-122,260,-253,260v-131,0,-253,-95,-253,-260xm198,-248v0,86,34,141,102,141v68,0,102,-55,102,-141v0,-86,-34,-141,-102,-141v-68,0,-102,55,-102,141"},"p":{"d":"214,-42v6,71,5,149,5,226r-147,0r0,-680r120,0r11,50r3,0v40,-36,95,-62,148,-62v124,0,199,99,199,252v1,228,-195,342,-339,214xm219,-141v89,67,179,36,183,-113v4,-144,-109,-170,-183,-88r0,201"},"q":{"d":"47,-248v0,-228,214,-339,350,-197r4,0r12,-51r115,0r0,680r-147,0r0,-153r6,-76v-35,33,-84,57,-131,57v-126,0,-209,-98,-209,-260xm198,-250v0,150,112,181,183,96r0,-201v-81,-68,-183,-33,-183,105"},"r":{"d":"116,0r0,-496r120,0r12,108r3,0v64,-109,180,-147,297,-100r-30,123v-116,-33,-194,-12,-255,107r0,258r-147,0"},"s":{"d":"53,-64r66,-92v57,36,114,59,180,59v67,0,95,-16,95,-42v0,-30,-53,-47,-133,-69v-87,-24,-177,-66,-177,-145v0,-92,87,-155,229,-155v88,0,162,35,214,68r-66,88v-45,-27,-93,-47,-145,-47v-62,0,-86,14,-86,39v0,30,57,45,127,63v98,26,183,63,183,149v0,90,-85,160,-244,160v-89,0,-180,-34,-243,-76"},"t":{"d":"174,-206r0,-175r-125,0r0,-109r132,-6r19,-132r121,0r0,132r210,0r0,115r-210,0r0,174v0,75,32,104,104,104v38,0,70,-8,99,-18r26,106v-44,13,-98,27,-162,27v-158,0,-214,-88,-214,-218"},"u":{"d":"525,-496r0,496r-120,0r-11,-71r-4,0v-44,50,-96,83,-167,83v-113,0,-161,-77,-161,-202r0,-306r147,0r0,287v0,66,17,96,72,96v37,0,63,-13,97,-57r0,-326r147,0"},"v":{"d":"218,0r-187,-496r148,0r78,234v16,50,30,101,45,153r4,0v15,-52,28,-103,44,-153r78,-234r141,0r-182,496r-169,0"},"w":{"d":"86,0r-82,-496r144,0r47,377r3,0v12,-109,36,-208,54,-311r103,0r33,164v9,49,17,97,24,147r4,0v7,-50,9,-98,16,-147r30,-230r134,0r-77,496r-170,0r-28,-165v-7,-46,-13,-93,-19,-146r-4,0v-7,80,-30,222,-45,311r-167,0"},"x":{"d":"37,0r172,-258r-161,-238r158,0r103,165r4,0r41,-85r44,-80r154,0r-162,255r172,241r-158,0r-114,-168r-4,0r-46,86r-49,82r-154,0"},"y":{"d":"93,72v80,22,140,-20,153,-85r-215,-483r146,0r83,213v18,47,34,97,50,149r4,0v13,-49,28,-101,45,-149r73,-213r139,0r-196,501v-52,150,-144,215,-308,179"},"z":{"d":"70,0r0,-79r260,-302r-228,0r0,-115r431,0r0,78r-260,303r268,0r0,115r-471,0"},"\u00c7":{"d":"488,-173r81,89v-49,57,-111,89,-182,95r-14,32v34,11,59,33,59,74v0,69,-83,99,-178,104r-11,-59v88,-4,121,-64,25,-86r35,-69v-140,-25,-248,-137,-248,-329v0,-216,137,-342,311,-342v83,0,149,40,193,83r-81,91v-31,-28,-65,-47,-112,-47v-92,0,-160,79,-160,210v0,195,176,275,282,154"},"\u011e":{"d":"44,-322v0,-218,132,-342,301,-342v88,0,149,41,191,83r-81,91v-28,-28,-58,-47,-110,-47v-85,0,-149,79,-149,210v0,134,52,212,155,212v25,0,50,-7,64,-20r0,-112r-95,0r0,-120r227,0r0,300v-44,41,-121,79,-204,79v-167,0,-299,-115,-299,-334xm330,-702v-87,0,-129,-49,-136,-120r80,0v6,26,22,46,56,46v35,0,51,-20,57,-46r80,0v-8,71,-49,120,-137,120"},"\u0130":{"d":"74,0r0,-124r152,0r0,-404r-152,0r0,-124r452,0r0,124r-152,0r0,404r152,0r0,124r-452,0xm300,-701v-49,0,-85,-32,-85,-77v0,-45,36,-77,85,-77v49,0,85,32,85,77v0,45,-36,77,-85,77"},"\u00d6":{"d":"300,12v-155,0,-262,-128,-262,-341v0,-213,107,-335,262,-335v155,0,262,123,262,335v0,213,-107,341,-262,341xm300,-115v68,0,111,-83,111,-214v0,-130,-43,-208,-111,-208v-68,0,-111,78,-111,208v0,131,43,214,111,214xm201,-700v-41,0,-70,-30,-70,-70v0,-40,29,-70,70,-70v41,0,70,30,70,70v0,40,-29,70,-70,70xm399,-700v-41,0,-70,-30,-70,-70v0,-40,29,-70,70,-70v41,0,70,30,70,70v0,40,-29,70,-70,70"},"\u015e":{"d":"225,-478v0,60,130,85,186,111v83,38,140,85,140,177v0,97,-74,184,-208,199r-14,34v34,11,58,33,58,74v0,69,-82,99,-177,104r-11,-59v88,-4,121,-64,25,-86r33,-66v-74,-9,-148,-40,-207,-92r85,-101v49,40,110,68,167,68v68,0,98,-24,98,-63v0,-62,-128,-87,-185,-114v-70,-33,-139,-83,-139,-178v0,-108,98,-194,239,-194v79,0,158,30,217,86r-75,93v-45,-33,-86,-52,-142,-52v-57,0,-90,22,-90,59"},"\u00dc":{"d":"64,-251r0,-401r147,0r0,416v0,78,29,121,91,121v62,0,92,-43,92,-121r0,-416r142,0r0,401v0,169,-76,263,-234,263v-159,0,-238,-94,-238,-263xm201,-700v-41,0,-70,-30,-70,-70v0,-40,29,-70,70,-70v41,0,70,30,70,70v0,40,-29,70,-70,70xm399,-700v-41,0,-70,-30,-70,-70v0,-40,29,-70,70,-70v41,0,70,30,70,70v0,40,-29,70,-70,70"},"\u00e7":{"d":"382,10r-15,33v34,11,59,33,59,74v0,69,-83,99,-177,104r-11,-59v86,-4,121,-65,24,-86r34,-67v-133,-18,-229,-109,-229,-257v0,-165,134,-260,287,-260v78,0,144,28,186,67r-68,91v-98,-80,-254,-32,-254,102v0,86,57,141,139,141v52,0,96,-22,131,-47r60,93v-49,41,-109,63,-166,71"},"\u011f":{"d":"172,62v0,37,48,57,126,57v79,0,134,-27,134,-61v0,-66,-163,-26,-225,-45v-25,16,-35,31,-35,49xm52,84v0,-40,26,-74,77,-99r0,-4v-27,-17,-50,-43,-50,-85v0,-33,24,-69,59,-93r0,-4v-36,-24,-65,-69,-65,-127v-1,-147,155,-208,294,-168r201,0r0,107r-101,0v12,15,23,40,23,66v3,136,-139,189,-273,156v-15,11,-22,20,-22,36v0,50,117,38,176,38v130,0,201,36,201,125v0,104,-115,179,-295,179v-129,0,-225,-38,-225,-127xm285,-246v41,0,76,-28,76,-82v0,-53,-35,-81,-76,-81v-41,0,-74,28,-74,81v0,54,33,82,74,82xm304,-574v-99,0,-144,-75,-147,-156r82,0v5,42,25,75,65,75v41,0,60,-33,66,-75r82,0v-3,81,-49,156,-148,156"},"\u0131":{"d":"79,-381r0,-115r346,0r0,496r-147,0r0,-381r-199,0"},"\u00f6":{"d":"47,-248v0,-165,122,-260,253,-260v131,0,253,95,253,260v0,165,-122,260,-253,260v-131,0,-253,-95,-253,-260xm198,-248v0,86,34,141,102,141v68,0,102,-55,102,-141v0,-86,-34,-141,-102,-141v-68,0,-102,55,-102,141xm191,-571v-46,0,-79,-34,-79,-79v0,-44,33,-78,79,-78v46,0,78,34,78,78v0,45,-32,79,-78,79xm409,-571v-46,0,-78,-34,-78,-79v0,-44,32,-78,78,-78v46,0,79,34,79,78v0,45,-33,79,-79,79"},"\u015f":{"d":"527,-440r-66,88v-45,-27,-93,-47,-145,-47v-62,0,-86,14,-86,39v0,30,57,45,127,63v98,26,183,63,183,149v0,79,-65,142,-187,157r-15,34v34,11,58,33,58,74v0,69,-82,99,-177,104r-11,-59v88,-4,122,-65,24,-86r33,-65v-79,-7,-156,-38,-212,-75r66,-92v57,36,114,59,180,59v67,0,95,-16,95,-42v0,-30,-53,-47,-133,-69v-87,-24,-177,-66,-177,-145v0,-92,87,-155,229,-155v88,0,162,35,214,68"},"\u00fc":{"d":"525,-496r0,496r-120,0r-11,-71r-4,0v-44,50,-96,83,-167,83v-113,0,-161,-77,-161,-202r0,-306r147,0r0,287v0,66,17,96,72,96v37,0,63,-13,97,-57r0,-326r147,0xm187,-571v-47,0,-79,-34,-79,-79v0,-44,32,-78,79,-78v46,0,78,34,78,78v0,45,-32,79,-78,79xm405,-571v-47,0,-79,-34,-79,-79v0,-44,32,-78,79,-78v46,0,78,34,78,78v0,45,-32,79,-78,79"},"&":{"d":"191,-256v-54,55,-29,156,60,156v22,0,43,-8,64,-23v-46,-40,-89,-85,-124,-133xm250,-567v-50,2,-53,104,-24,148v37,-27,65,-56,65,-97v0,-31,-11,-51,-41,-51xm452,-368r134,0v-20,79,-49,152,-91,220v33,21,63,35,91,41r-35,119v-45,-11,-91,-32,-138,-63v-49,39,-108,63,-181,63v-136,0,-209,-86,-209,-186v0,-86,49,-138,105,-179v-27,-51,-42,-99,-42,-140v0,-93,62,-171,161,-171v98,0,157,58,157,148v0,83,-63,134,-124,182v32,41,74,81,117,116v24,-42,43,-92,55,-150"},"0":{"d":"300,12v-147,0,-244,-117,-244,-332v0,-216,97,-327,244,-327v147,0,244,111,244,327v0,215,-97,332,-244,332xm300,-533v-63,0,-113,48,-113,213v0,165,50,218,113,218v63,0,113,-53,113,-218v0,-165,-50,-213,-113,-213xm300,-246v-42,0,-75,-30,-75,-76v0,-46,33,-76,75,-76v42,0,75,30,75,76v0,46,-33,76,-75,76"},"1":{"d":"393,-119r144,0r0,119r-455,0r0,-119r164,0r0,-367r-131,0r0,-91v74,-13,123,-31,170,-58r108,0r0,516"},"2":{"d":"58,0r0,-84v182,-153,304,-261,304,-352v0,-62,-38,-96,-104,-96v-51,0,-92,31,-128,65r-79,-79v66,-67,129,-101,227,-101v133,0,224,80,224,202v0,107,-110,221,-233,329v85,-11,173,-8,266,-8r0,124r-477,0"},"3":{"d":"42,-78r68,-93v42,37,97,64,155,64v69,0,119,-27,119,-75v0,-56,-43,-91,-192,-91r0,-104v125,0,171,-34,171,-85v0,-44,-36,-70,-94,-70v-50,0,-91,21,-135,56r-74,-90v62,-50,134,-81,216,-81v138,0,234,63,234,174v0,66,-45,112,-121,141r0,4v80,21,142,73,142,155v0,118,-118,185,-252,185v-109,0,-188,-36,-237,-90"},"4":{"d":"177,-264r164,0r0,-107v0,-40,3,-99,5,-139r-4,0v-21,36,-45,73,-69,108xm558,-264r0,112r-80,0r0,152r-137,0r0,-152r-306,0r0,-101r265,-382r178,0r0,371r80,0"},"5":{"d":"46,-77r66,-93v42,35,90,63,150,63v72,0,123,-34,123,-99v0,-107,-144,-123,-223,-66r-65,-42r17,-321r389,0r0,124r-262,0r-11,119v144,-47,302,18,302,182v0,141,-118,222,-249,222v-110,0,-185,-39,-237,-89"},"6":{"d":"314,-98v51,0,97,-31,97,-103v0,-65,-38,-92,-94,-92v-37,0,-78,17,-117,62v15,101,64,133,114,133xm536,-571r-77,88v-110,-85,-260,-56,-263,155v120,-124,349,-81,349,127v0,132,-106,213,-228,213v-130,0,-257,-92,-257,-315v0,-237,134,-344,274,-344v90,0,159,35,202,76"},"7":{"d":"193,0v12,-212,55,-344,188,-511r-319,0r0,-124r477,0r0,90v-161,178,-186,297,-198,545r-148,0"},"8":{"d":"188,-179v0,56,50,89,115,89v59,0,100,-26,100,-79v0,-58,-62,-77,-153,-111v-36,26,-62,60,-62,101xm343,-370v71,-54,67,-175,-42,-175v-47,0,-84,24,-84,73v0,52,52,77,126,102xm61,-162v0,-78,54,-124,120,-156r0,-4v-53,-37,-93,-83,-93,-150v0,-108,90,-175,216,-175v127,0,208,69,208,174v0,59,-41,107,-91,139r0,4v67,33,119,80,119,166v0,100,-86,176,-241,176v-147,0,-238,-71,-238,-174"},"9":{"d":"282,-342v37,0,78,-17,117,-63v-16,-100,-65,-132,-115,-132v-50,0,-97,31,-97,103v0,65,38,92,95,92xm62,-64r78,-88v110,85,260,56,263,-156v-121,125,-350,82,-350,-126v0,-132,106,-213,228,-213v131,0,257,92,257,315v0,237,-133,344,-273,344v-90,0,-159,-36,-203,-76"},".":{"d":"184,-105v0,-66,47,-118,116,-118v69,0,116,52,116,118v0,66,-47,117,-116,117v-69,0,-116,-51,-116,-117"},",":{"d":"219,217r-37,-86v87,-30,130,-79,130,-142v-63,6,-119,-32,-119,-101v0,-62,50,-103,112,-103v82,0,124,64,124,172v0,127,-72,218,-210,260"},":":{"d":"184,-429v0,-65,47,-117,116,-117v69,0,116,52,116,117v0,66,-47,118,-116,118v-69,0,-116,-52,-116,-118xm184,-105v0,-66,47,-118,116,-118v69,0,116,52,116,118v0,66,-47,117,-116,117v-69,0,-116,-51,-116,-117"},";":{"d":"300,-311v-69,0,-116,-52,-116,-118v0,-65,47,-117,116,-117v69,0,116,52,116,117v0,66,-47,118,-116,118xm219,217r-37,-86v87,-30,130,-79,130,-142v-63,6,-119,-32,-119,-101v0,-62,50,-103,112,-103v82,0,124,64,124,172v0,127,-72,218,-210,260"},"!":{"d":"252,-255r-20,-282r-5,-133r146,0r-5,133r-20,282r-96,0xm200,-90v0,-59,43,-100,100,-100v57,0,100,41,100,100v0,60,-43,102,-100,102v-57,0,-100,-42,-100,-102"},"?":{"d":"218,-255v-22,-134,138,-171,138,-245v0,-42,-32,-63,-74,-63v-41,0,-72,19,-102,46r-82,-75v48,-53,115,-90,194,-90v115,0,205,53,205,163v0,131,-163,148,-151,264r-128,0xm186,-90v0,-59,43,-100,100,-100v57,0,100,41,100,100v0,60,-43,102,-100,102v-57,0,-100,-42,-100,-102"},"'":{"d":"255,-303r-35,-237r-5,-145r170,0r-5,145r-35,237r-90,0"},"\"":{"d":"122,-303r-35,-237r-5,-145r170,0r-5,145r-35,237r-90,0xm388,-303r-35,-237r-5,-145r170,0r-5,145r-35,237r-90,0"},"-":{"d":"70,-278r0,-104r460,0r0,104r-460,0"},"_":{"d":"60,54r480,0r0,110r-480,0r0,-110"},"(":{"d":"392,179v-130,-115,-211,-269,-211,-457v0,-188,81,-342,211,-457r82,65v-119,116,-170,234,-170,392v0,158,51,276,170,392"},")":{"d":"208,179r-82,-65v119,-116,170,-234,170,-392v0,-158,-51,-276,-170,-392r82,-65v130,115,211,269,211,457v0,188,-81,342,-211,457"},"[":{"d":"201,152r0,-860r295,0r0,78r-183,0r0,704r183,0r0,78r-295,0"},"]":{"d":"105,74r182,0r0,-704r-182,0r0,-78r295,0r0,860r-295,0r0,-78"},"{":{"d":"233,10v0,-143,75,-240,-127,-245r0,-86v202,-5,127,-103,127,-245v0,-108,58,-142,186,-142r77,0r0,78r-41,0v-83,0,-102,14,-102,70v0,53,5,104,5,163v0,76,-29,105,-100,117r0,4v71,12,100,41,100,117v0,61,-5,109,-5,163v0,56,19,70,102,70r41,0r0,78r-77,0v-128,0,-186,-34,-186,-142"},"}":{"d":"105,74r41,0v82,0,101,-14,101,-70v0,-54,-4,-102,-4,-163v0,-76,28,-105,100,-117r0,-4v-72,-12,-100,-41,-100,-117v0,-59,4,-110,4,-163v0,-56,-19,-70,-101,-70r-41,0r0,-78r77,0v128,0,186,34,186,142v0,142,-77,240,127,245r0,86v-204,5,-127,103,-127,245v0,108,-58,142,-186,142r-77,0r0,-78"},"\/":{"d":"526,-710r-329,870r-123,0r329,-870r123,0"},"|":{"d":"235,250r0,-1000r130,0r0,1000r-130,0"},"\\":{"d":"403,160r-329,-870r123,0r329,870r-123,0"},"*":{"d":"184,-91r-64,-44r97,-157r-153,-68r23,-71r162,43r12,-178r78,0r12,178r162,-43r23,71r-153,68r97,157r-64,44r-116,-142"},"@":{"d":"550,-399r0,299r-78,0r-11,-51r-4,0v-25,37,-66,63,-120,63v-73,0,-127,-62,-127,-140v0,-108,97,-153,249,-172v4,-87,-36,-156,-131,-156v-94,0,-196,87,-196,307v1,275,172,366,345,269r42,73v-56,33,-109,54,-180,54v-160,0,-308,-128,-308,-400v0,-271,137,-391,300,-391v152,0,219,107,219,245xm317,-232v0,30,20,48,53,48v29,0,52,-14,74,-36r0,-92v-93,15,-127,36,-127,80"},"#":{"d":"122,0r22,-187r-74,0r0,-94r85,0r14,-110r-79,0r0,-94r91,0r21,-165r84,0r-20,165r104,0r21,-165r84,0r-20,165r79,0r0,94r-91,0r-13,110r84,0r0,94r-95,0r-23,187r-85,0r22,-187r-103,0r-23,187r-85,0xm241,-281r103,0r14,-110r-104,0"},"$":{"d":"513,-533r-73,84v-47,-33,-84,-50,-139,-50v-45,0,-69,16,-69,46v0,71,291,62,291,244v0,84,-59,151,-170,170r0,149r-98,0r0,-146v-65,-7,-141,-35,-191,-79r64,-100v63,39,118,62,181,62v48,0,74,-17,74,-45v0,-84,-292,-69,-292,-253v0,-86,63,-147,164,-163r0,-131r98,0r0,130v69,9,119,40,160,82"},"\u20ac":{"d":"502,-156r81,76v-54,59,-121,92,-202,92v-135,0,-240,-78,-272,-227r-64,0r0,-69r55,-4v-2,-17,-1,-35,0,-52r-55,0r0,-68r64,-5v33,-149,140,-234,283,-234v68,0,134,28,183,78r-81,79v-31,-25,-64,-43,-107,-43v-68,0,-112,43,-131,119r253,0r0,74r-263,0r1,50r222,0r0,75r-210,0v26,124,170,148,243,59"},"\u20a1":{"d":"356,-533r-50,415v12,7,25,11,39,14r50,-426v-12,-3,-25,-3,-39,-3xm262,-162r42,-355v-51,29,-78,99,-78,198v0,67,12,120,36,157xm482,-156r81,76v-50,54,-110,86,-182,91r-12,99r-50,0r12,-99v-14,-2,-27,-4,-39,-6r-13,105r-50,0r14,-121v-99,-43,-164,-146,-164,-303v0,-186,94,-304,240,-328r12,-103r50,0r-12,98r40,2r12,-100r50,0r-13,113v35,13,69,34,97,63r-81,79v-10,-8,-20,-15,-31,-22r-48,408v34,-6,62,-23,87,-52"},"\u20a4":{"d":"258,-124r292,0r0,124r-483,0r0,-91v60,-23,105,-68,116,-126r-112,0r0,-69r107,-5v-4,-16,-10,-32,-16,-48r-91,0r0,-69r67,-5v-19,-144,84,-234,225,-234v82,0,139,29,186,81r-79,80v-59,-74,-219,-50,-195,72r181,0r0,75r-162,0v4,16,9,32,13,48r149,0r0,74r-146,0v-5,34,-21,60,-52,89r0,4"},"\u20a6":{"d":"405,-294r-4,-48r-59,0r16,48r47,0xm424,-109r-13,-127r-33,0r42,127r4,0xm195,-342r4,48r59,0r-16,-48r-47,0xm176,-526r13,126r33,0r-42,-126r-4,0xm572,-342r-69,0r0,48r69,0r0,58r-69,0r0,236r-136,0r-89,-236r-75,0r0,236r-106,0r0,-236r-70,0r0,-52r70,-6r0,-48r-70,0r0,-52r70,-6r0,-235r136,0r89,235r75,0r0,-235r106,0r0,235r69,0r0,58"},"\u20a7":{"d":"228,-307v76,5,127,-17,143,-73r-143,0r0,73xm370,-471v-15,-61,-66,-76,-142,-72r0,72r142,0xm571,-471r0,91r-61,0v-25,128,-137,173,-282,165r0,215r-139,0r0,-380r-68,0r0,-85r68,-5r0,-165r183,0v118,0,217,43,237,164r62,0"},"\u20ab":{"d":"104,0r0,-74r419,0r0,74r-419,0xm369,-249r0,-111v-55,-49,-151,-29,-154,55v-3,104,102,117,154,56xm490,-602r72,0r0,68r-72,6r0,402r-100,0r-9,-36r-3,0v-29,28,-70,46,-116,46v-104,0,-171,-68,-171,-190v0,-157,179,-229,282,-140r-4,-82r-154,0r0,-74r154,0r0,-49r121,0r0,49"},"\u20b1":{"d":"228,-404r147,0v2,-15,1,-32,-1,-45r-146,0r0,45xm228,-307v58,3,103,-6,126,-39r-126,0r0,39xm353,-507v-23,-33,-69,-38,-125,-36r0,36r125,0xm571,-507r0,58r-59,0v1,15,2,30,0,45r59,0r0,58r-70,0v-40,102,-141,138,-273,131r0,215r-139,0r0,-346r-67,0r0,-52r67,-5r0,-46r-67,0r0,-52r67,-5r0,-129v184,-1,362,-20,411,128r71,0"},"\u20b2":{"d":"331,-242r0,-120r206,0r0,300v-41,36,-91,61,-145,70r0,102r-98,0r0,-102v-132,-22,-227,-132,-227,-322v0,-183,92,-300,227,-327r0,-104r98,0r0,101v55,9,107,37,146,78r-81,80v-31,-29,-64,-47,-107,-47v-87,0,-136,80,-136,214v-1,162,76,244,193,199r0,-122r-76,0"},"\u20b5":{"d":"323,-110r0,-416v-64,22,-97,96,-97,207v0,112,35,185,97,209xm482,-156r81,76v-44,48,-97,79,-159,89r0,101r-81,0r0,-100v-142,-17,-244,-128,-244,-324v0,-189,98,-308,244,-329r0,-93r81,0r0,91v56,7,110,34,151,76r-81,79v-21,-17,-44,-31,-70,-38r0,422v30,-7,55,-24,78,-50"},"\u20b9":{"d":"523,-635r0,74r-149,0v37,23,63,57,73,98r76,0r0,74r-74,0v-11,85,-63,138,-135,165r187,224r-163,0r-164,-201r-86,0r0,-117v97,4,198,-4,214,-71r-214,0r0,-68v66,-7,139,-6,212,-6v-17,-59,-123,-56,-212,-55r0,-117r435,0"},"\u20ba":{"d":"268,-125v92,-11,177,-65,154,-159r121,-28v5,20,8,40,8,51v0,182,-162,280,-430,273r0,-232r-85,41r0,-81r85,-41r0,-55r-85,41r0,-81r85,-41r0,-198r147,0r0,126r160,-77r0,81r-160,77r0,55r160,-77r0,81r-160,77r0,167"},"%":{"d":"172,-312v-84,0,-148,-66,-148,-169v0,-103,64,-166,148,-166v85,0,149,63,149,166v0,103,-64,169,-149,169xm172,-390v25,0,48,-23,48,-91v0,-69,-23,-87,-48,-87v-25,0,-47,18,-47,87v0,68,22,91,47,91xm93,-28r-76,-73r187,-173r51,47xm509,-624r75,73r-186,174r-51,-48xm428,12v-85,0,-149,-66,-149,-170v0,-103,64,-166,149,-166v84,0,148,63,148,166v0,104,-64,170,-148,170xm428,-67v25,0,47,-23,47,-91v0,-68,-22,-87,-47,-87v-25,0,-48,19,-48,87v0,68,23,91,48,91"},"+":{"d":"246,-94r0,-184r-176,0r0,-104r176,0r0,-184r108,0r0,184r176,0r0,104r-176,0r0,184r-108,0"},"=":{"d":"70,-395r0,-103r460,0r0,103r-460,0xm70,-162r0,-103r460,0r0,103r-460,0"},"<":{"d":"116,-281r0,-102r386,-250r0,133r-265,166r0,4r265,166r0,133"},">":{"d":"484,-383r0,102r-386,250r0,-133r265,-166r0,-4r-265,-166r0,-133"},"^":{"d":"86,-274r155,-396r118,0r155,396r-121,0r-91,-263r-4,0r-91,263r-121,0"},"~":{"d":"140,-234r-88,-41v42,-104,101,-145,163,-145v83,0,117,76,172,76v28,0,54,-26,73,-82r88,41v-42,104,-101,145,-163,145v-83,0,-117,-76,-172,-76v-27,0,-54,27,-73,82"},"`":{"d":"275,-574r-132,-167r150,0r89,167r-107,0"},"\u00a0":{}}});


/*!
 * The following copyright notice may not be removed under any circumstances.
 * 
 * Copyright:
 * Copyright 2010, 2012 Adobe Systems Incorporated. All Rights Reserved.
 * 
 * Trademark:
 * Source is a trademark of Adobe Systems Incorporated in the United States and/or
 * other countries.
 * 
 * Manufacturer:
 * Adobe Systems Incorporated
 * 
 * Designer:
 * Paul D. Hunt
 * 
 * Vendor URL:
 * http://www.adobe.com/type
 * 
 * License information:
 * http://www.adobe.com/type/legal.html
 */
Rafael.registerFont({"w":600,"face":{"font-family":"Source Code Pro ExtraLight","font-weight":200,"font-stretch":"normal","units-per-em":"1000","panose-1":"2 11 3 9 3 4 3 2 2 4","ascent":"750","descent":"-250","x-height":"12","bbox":"12 -814 588 250","underline-thickness":"50","underline-position":"-50","stemh":"28","stemv":"34","unicode-range":"U+0020-U+20BA"},"glyphs":{" ":{},"A":{"d":"175,-264r249,0r-46,-132v-28,-80,-52,-148,-76,-230r-4,0v-24,82,-48,150,-76,230xm516,0r-82,-236r-269,0r-83,236r-32,0r236,-660r28,0r236,660r-34,0"},"B":{"d":"119,0r0,-660r160,0v132,0,214,52,214,160v0,70,-40,124,-118,144r0,4v98,14,160,68,160,160v0,126,-94,192,-244,192r-172,0xm151,-366r108,0v144,0,202,-46,202,-138v0,-90,-68,-128,-196,-128r-114,0r0,266xm151,-28r128,0v138,0,224,-50,224,-162v0,-100,-82,-148,-224,-148r-128,0r0,310"},"C":{"d":"74,-332v0,-208,111,-340,279,-340v76,0,134,38,168,78r-20,22v-36,-42,-86,-70,-148,-70v-152,0,-245,120,-245,310v0,190,93,314,241,314v70,0,122,-28,172,-84r20,20v-50,58,-108,94,-194,94v-162,0,-273,-136,-273,-344"},"D":{"d":"100,0r0,-660r148,0v204,0,296,132,296,328v0,196,-92,332,-296,332r-148,0xm132,-28r112,0v188,0,266,-130,266,-304v0,-174,-78,-300,-266,-300r-112,0r0,604"},"E":{"d":"132,0r0,-660r384,0r0,28r-352,0r0,266r296,0r0,28r-296,0r0,310r362,0r0,28r-394,0"},"F":{"d":"156,0r0,-660r378,0r0,28r-347,0r0,278r292,0r0,28r-292,0r0,326r-31,0"},"G":{"d":"61,-332v0,-208,112,-340,282,-340v86,0,139,42,173,78r-20,22v-34,-38,-81,-70,-153,-70v-154,0,-248,120,-248,310v0,190,90,314,240,314v63,0,121,-20,154,-54r0,-218r-160,0r0,-28r193,0r0,256v-40,44,-104,74,-189,74v-164,0,-272,-136,-272,-344"},"H":{"d":"92,0r0,-660r32,0r0,294r352,0r0,-294r32,0r0,660r-32,0r0,-338r-352,0r0,338r-32,0"},"I":{"d":"112,0r0,-28r172,0r0,-604r-172,0r0,-28r376,0r0,28r-172,0r0,604r172,0r0,28r-376,0"},"J":{"d":"98,-98r30,-17v38,67,94,98,151,98v115,0,164,-63,164,-187r0,-430r-291,0r0,-27r323,0r0,460v0,118,-48,213,-197,213v-75,0,-144,-37,-180,-110"},"K":{"d":"122,0r0,-660r32,0r0,380r2,0r344,-380r39,0r-216,242r245,418r-38,0r-231,-394r-145,160r0,234r-32,0"},"L":{"d":"156,0r0,-660r30,0r0,632r352,0r0,28r-382,0"},"M":{"d":"95,0r0,-660r46,0r158,438r4,0r40,-120r116,-318r46,0r0,660r-32,0r0,-495v0,-41,2,-87,3,-128r-3,0r-36,110r-123,332r-27,0r-163,-442r-2,0v1,41,4,87,4,128r0,495r-31,0"},"N":{"d":"96,0r0,-660r33,0r347,614r2,0v-1,-63,-4,-123,-4,-185r0,-429r30,0r0,660r-33,0r-347,-614r-2,0v1,63,4,119,4,181r0,433r-30,0"},"O":{"d":"300,12v-142,0,-244,-136,-244,-344v0,-208,102,-340,244,-340v142,0,244,132,244,340v0,208,-102,344,-244,344xm300,-18v125,0,210,-124,210,-314v0,-190,-85,-310,-210,-310v-125,0,-210,120,-210,310v0,190,85,314,210,314"},"P":{"d":"124,0r0,-660r172,0v148,0,232,48,232,180v0,126,-84,188,-232,188r-140,0r0,292r-32,0xm156,-320r128,0v142,0,210,-46,210,-160v0,-116,-68,-152,-210,-152r-128,0r0,312"},"Q":{"d":"92,-332v0,189,81,316,208,316v127,0,208,-127,208,-316v0,-190,-81,-313,-208,-313v-127,0,-208,123,-208,313xm525,110r7,32v-126,32,-224,-38,-251,-131v-132,-11,-221,-145,-221,-343v0,-208,97,-341,240,-341v143,0,240,133,240,341v0,199,-89,333,-223,343v21,78,110,123,208,99"},"R":{"d":"156,-340r138,0v122,0,190,-48,190,-150v0,-104,-68,-142,-190,-142r-138,0r0,292xm528,0r-38,0r-186,-312r-148,0r0,312r-32,0r0,-660r182,0v130,0,212,48,212,170v0,105,-68,166,-178,176"},"S":{"d":"80,-88r22,-22v50,56,124,92,208,92v112,0,184,-58,184,-142v0,-131,-144,-145,-234,-192v-58,-30,-144,-64,-144,-162v0,-94,84,-158,196,-158v84,0,150,37,190,78r-20,22v-40,-42,-98,-70,-170,-70v-98,0,-164,50,-164,126v0,82,77,110,126,134v102,51,251,73,252,220v0,100,-86,174,-216,174v-102,0,-178,-42,-230,-100"},"T":{"d":"284,0r0,-632r-234,0r0,-28r500,0r0,28r-234,0r0,632r-32,0"},"U":{"d":"92,-246r0,-414r32,0r0,406v0,182,84,236,176,236v94,0,178,-54,178,-236r0,-406r30,0r0,414v0,204,-104,258,-208,258v-104,0,-208,-54,-208,-258"},"V":{"d":"285,0r-220,-660r34,0r200,619r4,0r200,-619r32,0r-218,660r-32,0"},"W":{"d":"127,0r-112,-661r29,0r78,465v6,53,16,105,23,158r2,0r136,-450r35,0r136,450r4,0r98,-623r28,0r-109,661r-42,0r-101,-331v-11,-38,-19,-75,-30,-114r-3,0r-130,445r-42,0"},"X":{"d":"83,0r200,-342r-186,-318r34,0r116,204r54,88r4,0r166,-292r32,0r-186,320r200,340r-34,0r-184,-316r-4,0r-180,316r-32,0"},"Y":{"d":"284,0r0,-245r-228,-415r32,0r212,382r4,0v32,-53,62,-104,90,-157r120,-225r30,0r-228,415r0,245r-32,0"},"Z":{"d":"72,0r0,-19r416,-615r-381,0r0,-27r419,0r0,19r-417,614r424,0r0,28r-461,0"},"a":{"d":"96,-117v0,-107,110,-157,374,-181v0,-84,-32,-164,-148,-164v-76,0,-149,40,-186,68r-16,-24v34,-26,118,-72,204,-72v127,0,176,84,176,180r0,310r-26,0v-3,-23,1,-54,-6,-74v-56,45,-132,86,-204,86v-84,0,-168,-38,-168,-129xm128,-118v0,74,70,102,138,102v64,0,132,-31,204,-92r0,-164v-258,24,-342,72,-342,154"},"b":{"d":"110,0r0,-722r30,0r-2,320v53,-52,124,-88,188,-88v137,0,204,96,204,244v-2,244,-229,327,-390,192r-4,54r-26,0xm140,-92v60,55,127,76,168,76v110,0,190,-96,190,-230v0,-122,-49,-216,-174,-216v-53,0,-120,30,-184,94r0,276"},"c":{"d":"90,-238v0,-160,116,-252,258,-252v81,0,132,36,171,74r-20,22v-41,-40,-89,-68,-151,-68v-134,0,-226,92,-226,224v0,132,90,222,226,222v67,0,122,-30,166,-72r18,22v-48,46,-108,78,-184,78v-148,0,-258,-92,-258,-250"},"d":{"d":"70,-238v0,-154,107,-252,228,-252v62,0,111,26,164,70r-2,-302r30,0r0,722r-26,0v-3,-23,1,-54,-6,-74v-43,45,-106,86,-176,86v-126,0,-212,-88,-212,-250xm102,-238v0,132,68,222,182,222v59,0,119,-34,176,-94r0,-276v-58,-55,-111,-76,-164,-76v-108,0,-194,100,-194,224"},"e":{"d":"80,-238v0,-156,117,-252,238,-252v138,-1,226,98,210,252r-416,0v0,128,88,222,220,222v66,0,119,-22,164,-54r14,26v-42,27,-93,56,-180,56v-136,0,-250,-94,-250,-250xm112,-266r388,0v0,-130,-74,-196,-182,-196v-101,0,-192,76,-206,196"},"f":{"d":"572,-704r-12,24v-46,-22,-74,-26,-120,-26v-133,0,-153,98,-146,228r230,0r0,28r-230,0r0,450r-28,0r0,-450r-146,0r0,-24r146,-4v-11,-153,34,-259,174,-256v41,0,82,6,132,30"},"g":{"d":"203,-11v-146,80,-99,218,103,217v139,0,222,-68,222,-132v0,-117,-214,-56,-325,-85xm312,234v-230,0,-293,-159,-142,-256r0,-4v-24,-11,-50,-36,-50,-76v0,-30,20,-64,58,-90r0,-4v-30,-26,-56,-66,-56,-124v0,-117,121,-202,238,-158r200,0r0,28r-152,0v32,30,62,75,62,130v0,131,-149,211,-268,144v-30,18,-50,44,-50,71v-3,87,143,70,237,71v121,0,171,30,171,106v0,80,-96,162,-248,162xm296,-180v78,0,142,-58,142,-140v0,-82,-64,-142,-142,-142v-78,0,-142,60,-142,142v0,82,64,140,142,140"},"h":{"d":"110,0r0,-722r30,0r-2,344v63,-66,120,-112,198,-112v117,0,174,61,174,192r0,298r-30,0r0,-294v0,-113,-43,-168,-144,-168v-72,0,-122,38,-196,116r0,346r-30,0"},"i":{"d":"100,-450r0,-28r276,0r0,478r-30,0r0,-450r-246,0xm350,-600v-22,0,-40,-16,-40,-42v0,-26,18,-42,40,-42v22,0,40,16,40,42v0,26,-18,42,-40,42"},"j":{"d":"100,-450r0,-28r276,0r0,524v0,118,-44,188,-182,188v-43,0,-93,-14,-128,-32r14,-26v31,16,76,30,119,30v117,0,147,-63,147,-154r0,-502r-246,0xm350,-600v-22,0,-40,-16,-40,-42v0,-26,18,-42,40,-42v22,0,40,16,40,42v0,26,-18,42,-40,42"},"k":{"d":"130,0r0,-722r30,0r0,546r4,0r326,-302r40,0r-198,184r232,294r-36,0r-220,-276r-148,138r0,138r-30,0"},"l":{"d":"97,-694r0,-28r213,0r0,590v-6,126,117,139,210,89r12,25v-38,15,-71,30,-117,30v-86,0,-135,-43,-135,-150r0,-556r-183,0"},"m":{"d":"80,0r0,-478r26,0v3,21,-1,49,6,66v29,-48,58,-78,111,-78v54,0,84,28,97,86v37,-56,66,-86,119,-86v66,0,103,46,103,142r0,348r-30,0r0,-344v0,-78,-25,-118,-75,-118v-47,0,-77,32,-111,96r0,366r-30,0r0,-344v0,-78,-25,-118,-75,-118v-47,0,-77,32,-111,96r0,366r-30,0"},"n":{"d":"110,0r0,-478r26,0r4,96r4,0v57,-62,114,-108,192,-108v117,0,174,61,174,192r0,298r-30,0r0,-294v0,-113,-43,-168,-144,-168v-72,0,-122,38,-196,116r0,346r-30,0"},"o":{"d":"70,-238v0,-160,105,-252,230,-252v125,0,230,92,230,252v0,158,-105,250,-230,250v-125,0,-230,-92,-230,-250xm102,-238v0,132,84,222,198,222v114,0,198,-90,198,-222v0,-132,-84,-224,-198,-224v-114,0,-198,92,-198,224"},"p":{"d":"140,-58r0,280r-30,0r0,-700r26,0v3,23,-1,53,6,72v49,-48,120,-84,184,-84v137,0,204,96,204,244v-2,242,-232,332,-390,188xm140,-92v60,55,127,76,166,76v112,0,192,-96,192,-230v0,-122,-49,-216,-174,-216v-53,0,-120,30,-184,94r0,276"},"q":{"d":"70,-238v0,-232,244,-325,390,-184r4,-56r26,0r0,700r-30,0r2,-298v-48,48,-110,88,-180,88v-126,0,-212,-88,-212,-250xm102,-238v0,132,68,222,182,222v59,0,119,-34,176,-94r0,-276v-58,-55,-111,-76,-164,-76v-108,0,-194,100,-194,224"},"r":{"d":"170,0r0,-478r26,0v3,39,-1,85,6,120v67,-100,190,-168,326,-112r-10,28v-145,-47,-224,-3,-318,136r0,306r-30,0"},"s":{"d":"87,-64r19,-24v52,44,114,72,218,72v104,0,158,-48,158,-102v0,-46,-28,-81,-178,-116v-111,-26,-190,-70,-190,-132v0,-66,55,-124,182,-124v61,0,135,24,180,58r-18,24v-42,-32,-97,-54,-164,-54v-113,0,-148,46,-148,94v0,48,64,80,166,105v158,39,202,77,202,143v0,70,-70,132,-192,132v-100,0,-179,-35,-235,-76"},"t":{"d":"232,-176r0,-274r-148,0r0,-24r148,-4r4,-140r26,0r0,140r262,0r0,28r-262,0r0,278v0,96,26,156,137,156v53,0,94,-10,133,-26r10,24v-43,18,-101,30,-145,30v-127,0,-165,-76,-165,-188"},"u":{"d":"490,-478r0,478r-26,0r-4,-96r-4,0v-53,62,-114,108,-192,108v-117,0,-174,-61,-174,-192r0,-298r30,0r0,294v0,113,43,168,144,168v72,0,126,-37,196,-116r0,-346r30,0"},"v":{"d":"286,0r-220,-478r32,0r202,446r4,0r200,-446r30,0r-218,478r-30,0"},"w":{"d":"142,0r-130,-478r34,0r114,448r4,0r116,-448r42,0r116,448r4,0r114,-448r32,0r-128,478r-42,0r-116,-448r-4,0r-34,138r-80,310r-42,0"},"x":{"d":"86,0r195,-248r-179,-230r36,0r160,208r4,0r66,-82r96,-126r34,0r-181,230r197,248r-36,0r-178,-226r-4,0r-176,226r-34,0"},"y":{"d":"77,184v123,39,188,-67,223,-172r-236,-490r32,0r148,314v19,40,44,92,68,134r4,0r190,-448r30,0r-230,546v-28,88,-118,186,-239,144"},"z":{"d":"72,0r0,-16r392,-434r-350,0r0,-28r398,0r0,16r-392,434r404,0r0,28r-452,0"},"\u00c7":{"d":"521,-102r20,20v-48,56,-104,92,-186,94r-23,44v32,10,60,28,60,68v0,50,-58,74,-118,82r-6,-26v56,-8,94,-24,94,-52v0,-32,-30,-44,-68,-54r33,-63v-151,-10,-253,-144,-253,-343v0,-208,111,-340,279,-340v76,0,134,38,168,78r-20,22v-36,-42,-86,-70,-148,-70v-152,0,-245,120,-245,310v0,190,93,314,241,314v70,0,122,-28,172,-84"},"\u011e":{"d":"61,-332v0,-208,112,-340,282,-340v86,0,139,42,173,78r-20,22v-34,-38,-81,-70,-153,-70v-154,0,-248,120,-248,310v0,190,90,314,240,314v63,0,121,-20,154,-54r0,-218r-160,0r0,-28r193,0r0,256v-40,44,-104,74,-189,74v-164,0,-272,-136,-272,-344xm332,-712v-74,0,-106,-60,-112,-102r26,0v6,36,32,76,86,76v54,0,80,-40,86,-76r26,0v-6,42,-38,102,-112,102"},"\u0130":{"d":"112,0r0,-28r172,0r0,-604r-172,0r0,-28r376,0r0,28r-172,0r0,604r172,0r0,28r-376,0xm300,-724v-18,0,-34,-14,-34,-36v0,-20,16,-34,34,-34v18,0,34,14,34,34v0,22,-16,36,-34,36"},"\u00d6":{"d":"300,12v-142,0,-244,-136,-244,-344v0,-208,102,-340,244,-340v142,0,244,132,244,340v0,208,-102,344,-244,344xm300,-18v125,0,210,-124,210,-314v0,-190,-85,-310,-210,-310v-125,0,-210,120,-210,310v0,190,85,314,210,314xm224,-728v-18,0,-32,-12,-32,-32v0,-20,14,-32,32,-32v18,0,32,12,32,32v0,20,-14,32,-32,32xm376,-728v-18,0,-32,-12,-32,-32v0,-20,14,-32,32,-32v18,0,32,12,32,32v0,20,-14,32,-32,32"},"\u015e":{"d":"274,-382v102,51,251,73,252,220v0,95,-78,167,-197,173r-23,45v32,10,60,28,60,68v0,50,-58,74,-118,82r-6,-26v56,-8,94,-24,94,-52v0,-32,-30,-44,-68,-54r33,-62v-98,-3,-171,-44,-221,-100r22,-22v50,56,124,92,208,92v112,0,184,-58,184,-142v0,-131,-144,-145,-234,-192v-58,-30,-144,-64,-144,-162v0,-94,84,-158,196,-158v84,0,150,37,190,78r-20,22v-40,-42,-98,-70,-170,-70v-98,0,-164,50,-164,126v0,82,77,110,126,134"},"\u00dc":{"d":"92,-246r0,-414r32,0r0,406v0,182,84,236,176,236v94,0,178,-54,178,-236r0,-406r30,0r0,414v0,204,-104,258,-208,258v-104,0,-208,-54,-208,-258xm224,-728v-18,0,-32,-12,-32,-32v0,-20,14,-32,32,-32v18,0,32,12,32,32v0,20,-14,32,-32,32xm376,-728v-18,0,-32,-12,-32,-32v0,-20,14,-32,32,-32v18,0,32,12,32,32v0,20,-14,32,-32,32"},"\u00e7":{"d":"360,12r-23,44v32,10,60,28,60,68v0,50,-58,74,-118,82r-6,-26v56,-8,94,-24,94,-52v0,-32,-30,-44,-68,-54r33,-62v-140,-7,-242,-98,-242,-250v0,-160,116,-252,258,-252v81,0,132,36,171,74r-20,22v-41,-40,-89,-68,-151,-68v-134,0,-226,92,-226,224v0,132,90,222,226,222v67,0,122,-30,166,-72r18,22v-45,44,-102,75,-172,78"},"\u011f":{"d":"203,-11v-146,80,-99,218,103,217v139,0,222,-68,222,-132v0,-117,-214,-56,-325,-85xm312,234v-230,0,-293,-159,-142,-256r0,-4v-24,-11,-50,-36,-50,-76v0,-30,20,-64,58,-90r0,-4v-30,-26,-56,-66,-56,-124v0,-117,121,-202,238,-158r200,0r0,28r-152,0v32,30,62,75,62,130v0,131,-149,211,-268,144v-30,18,-50,44,-50,71v-3,87,143,70,237,71v121,0,171,30,171,106v0,80,-96,162,-248,162xm296,-180v78,0,142,-58,142,-140v0,-82,-64,-142,-142,-142v-78,0,-142,60,-142,142v0,82,64,140,142,140xm310,-576v-80,0,-110,-68,-116,-116r26,0v6,44,34,90,90,90v56,0,84,-46,90,-90r26,0v-6,48,-36,116,-116,116"},"\u0131":{"d":"100,-450r0,-28r276,0r0,478r-30,0r0,-450r-246,0"},"\u00f6":{"d":"70,-238v0,-160,105,-252,230,-252v125,0,230,92,230,252v0,158,-105,250,-230,250v-125,0,-230,-92,-230,-250xm102,-238v0,132,84,222,198,222v114,0,198,-90,198,-222v0,-132,-84,-224,-198,-224v-114,0,-198,92,-198,224xm214,-602v-20,0,-34,-16,-34,-36v0,-20,14,-36,34,-36v20,0,34,16,34,36v0,20,-14,36,-34,36xm386,-602v-20,0,-34,-16,-34,-36v0,-20,14,-36,34,-36v20,0,34,16,34,36v0,20,-14,36,-34,36"},"\u015f":{"d":"476,-432r-18,24v-42,-32,-97,-54,-164,-54v-113,0,-148,46,-148,94v0,48,64,80,166,105v158,39,202,77,202,143v0,68,-66,128,-181,132r-23,44v32,10,60,28,60,68v0,50,-58,74,-118,82r-6,-26v56,-8,94,-24,94,-52v0,-32,-30,-44,-68,-54r33,-62v-92,-4,-165,-37,-218,-76r19,-24v52,44,114,72,218,72v104,0,158,-48,158,-102v0,-46,-28,-81,-178,-116v-111,-26,-190,-70,-190,-132v0,-66,55,-124,182,-124v61,0,135,24,180,58"},"\u00fc":{"d":"490,-478r0,478r-26,0r-4,-96r-4,0v-53,62,-114,108,-192,108v-117,0,-174,-61,-174,-192r0,-298r30,0r0,294v0,113,43,168,144,168v72,0,126,-37,196,-116r0,-346r30,0xm208,-602v-20,0,-34,-16,-34,-36v0,-20,14,-36,34,-36v20,0,34,16,34,36v0,20,-14,36,-34,36xm380,-602v-20,0,-34,-16,-34,-36v0,-20,14,-36,34,-36v20,0,34,16,34,36v0,20,-14,36,-34,36"},"&":{"d":"245,-16v58,0,111,-32,154,-77v-72,-67,-145,-155,-193,-246v-63,49,-117,100,-117,171v0,92,72,152,156,152xm277,-644v-126,0,-111,169,-59,264v69,-52,135,-102,135,-174v0,-44,-20,-90,-76,-90xm569,-16r-12,28v-40,-15,-86,-43,-137,-86v-48,51,-104,86,-177,86v-100,0,-186,-68,-186,-178v0,-85,67,-143,137,-196v-28,-57,-45,-114,-45,-166v0,-84,54,-144,130,-144v68,0,104,50,104,116v0,84,-78,141,-154,199v47,90,119,178,189,242v50,-62,85,-139,109,-227r30,0v-26,92,-65,178,-118,245v47,39,91,66,130,81"},"0":{"d":"300,12v-138,0,-216,-124,-216,-334v0,-212,78,-330,216,-330v138,0,216,118,216,330v0,210,-78,334,-216,334xm300,-624v-110,0,-184,104,-184,302v0,198,74,306,184,306v110,0,184,-108,184,-306v0,-198,-74,-302,-184,-302xm300,-274v-26,0,-52,-20,-52,-58v0,-77,104,-77,104,0v0,38,-26,58,-52,58"},"1":{"d":"336,-28r184,0r0,28r-408,0r0,-28r194,0r0,-552r-140,0r0,-22v63,-8,112,-22,147,-38r23,0r0,612"},"2":{"d":"85,0r0,-20v244,-222,359,-338,359,-456v0,-82,-49,-148,-165,-148v-68,0,-129,36,-174,86r-22,-20v51,-52,113,-94,197,-94v124,0,195,70,195,176v0,130,-129,253,-343,452v41,-2,80,-4,121,-4r258,0r0,28r-426,0"},"3":{"d":"70,-78r20,-22v42,42,104,84,206,84v102,0,180,-60,180,-150v0,-92,-81,-156,-264,-156r0,-30v173,0,240,-66,240,-146v0,-76,-66,-126,-160,-126v-68,0,-134,32,-174,72r-20,-22v46,-42,112,-78,194,-78v106,0,192,56,192,152v0,86,-66,137,-148,160r0,4v90,16,172,76,172,168v0,110,-94,180,-214,180v-112,0,-180,-48,-224,-90"},"4":{"d":"92,-225r298,0r0,-271v2,-30,3,-61,5,-91r-6,0v-93,127,-198,241,-297,362xm535,-225r0,29r-115,0r0,196r-30,0r0,-196r-347,0r0,-17r362,-428r15,0r0,416r115,0"},"5":{"d":"64,-74r20,-22v44,40,99,80,206,80v103,0,192,-74,192,-182v0,-108,-72,-174,-190,-174v-62,0,-101,18,-148,44r-26,-16r24,-296r338,0r0,28r-310,0r-22,246v43,-21,84,-36,146,-36v126,0,220,62,220,202v0,136,-111,212,-226,212v-117,0,-178,-46,-224,-86"},"6":{"d":"326,-16v96,0,166,-76,166,-170v0,-106,-56,-170,-170,-170v-59,0,-132,29,-199,102v9,139,71,238,203,238xm510,-592r-20,22v-38,-36,-86,-54,-140,-54v-120,0,-227,85,-228,332v57,-56,124,-92,202,-92v124,0,200,70,200,198v0,114,-93,198,-200,198v-146,0,-234,-110,-234,-300v0,-272,125,-364,262,-364v68,0,117,24,158,60"},"7":{"d":"252,0v10,-266,76,-424,232,-612r-408,0r0,-28r450,0r0,18v-176,206,-230,370,-238,622r-36,0"},"8":{"d":"106,-164v0,82,74,148,199,148v123,0,187,-62,187,-138v0,-114,-110,-139,-238,-180v-84,40,-148,86,-148,170xm359,-330v69,-46,105,-98,105,-156v0,-74,-55,-138,-159,-138v-90,0,-149,54,-149,126v0,96,92,134,203,168xm74,-164v0,-96,80,-150,151,-182r0,-4v-53,-30,-101,-80,-101,-148v0,-90,78,-154,181,-154v124,0,191,72,191,166v0,62,-46,122,-103,164r0,4v73,36,131,70,131,164v0,92,-80,166,-219,166v-142,0,-231,-76,-231,-176"},"9":{"d":"280,-284v59,0,132,-29,199,-102v-9,-139,-71,-238,-203,-238v-96,0,-166,76,-166,170v0,106,56,170,170,170xm92,-48r20,-22v38,36,86,54,140,54v120,0,227,-85,228,-332v-57,56,-124,92,-202,92v-124,0,-200,-70,-200,-198v0,-114,93,-198,200,-198v146,0,234,110,234,300v0,272,-125,364,-262,364v-68,0,-117,-24,-158,-60"},".":{"d":"248,-46v0,-77,104,-77,104,0v0,38,-26,58,-52,58v-26,0,-52,-20,-52,-58"},",":{"d":"221,210r-13,-25v79,-41,120,-96,123,-188v-40,12,-78,-3,-78,-49v0,-38,26,-54,53,-54v41,0,63,37,63,93v0,109,-61,183,-148,223"},":":{"d":"248,-432v0,-77,104,-77,104,0v0,38,-26,58,-52,58v-26,0,-52,-20,-52,-58xm248,-46v0,-77,104,-77,104,0v0,38,-26,58,-52,58v-26,0,-52,-20,-52,-58"},";":{"d":"300,-374v-26,0,-52,-20,-52,-58v0,-77,104,-77,104,0v0,38,-26,58,-52,58xm221,210r-13,-25v79,-41,120,-96,123,-188v-40,12,-78,-3,-78,-49v0,-38,26,-54,53,-54v41,0,63,37,63,93v0,109,-61,183,-148,223"},"!":{"d":"288,-214r-2,-456r28,0r-2,456r-24,0xm248,-46v0,-77,104,-77,104,0v0,38,-26,58,-52,58v-26,0,-52,-20,-52,-58"},"?":{"d":"262,-214v-26,-150,170,-192,170,-316v0,-66,-42,-124,-140,-124v-58,0,-112,24,-152,66r-22,-20v42,-42,100,-74,176,-74v108,0,170,68,170,150v0,132,-196,177,-174,318r-28,0xm234,-46v0,-38,26,-58,52,-58v26,0,52,20,52,58v0,38,-26,58,-52,58v-26,0,-52,-20,-52,-58"},"'":{"d":"286,-392v-7,-98,-21,-190,-17,-296r62,0v4,106,-10,198,-17,296r-28,0"},"\"":{"d":"186,-392v-7,-98,-21,-190,-17,-296r62,0v4,106,-10,198,-17,296r-28,0xm386,-392v-7,-98,-21,-190,-17,-296r62,0v4,106,-10,198,-17,296r-28,0"},"-":{"d":"98,-316r0,-28r404,0r0,28r-404,0"},"_":{"d":"60,82r480,0r0,38r-480,0r0,-38"},"(":{"d":"465,173v-146,-102,-235,-254,-235,-451v0,-197,89,-349,235,-451r17,23v-292,202,-291,654,0,856"},")":{"d":"135,173r-17,-23v292,-202,291,-654,0,-856r17,-23v146,102,235,254,235,451v0,197,-89,349,-235,451"},"[":{"d":"246,152r0,-860r260,0r0,23r-232,0r0,814r232,0r0,23r-260,0"},"]":{"d":"94,129r232,0r0,-814r-232,0r0,-23r260,0r0,860r-260,0r0,-23"},"{":{"d":"274,26v0,-74,9,-140,9,-211v0,-41,-25,-81,-151,-81r0,-24v126,0,151,-40,151,-81v0,-64,-9,-143,-9,-211v0,-116,99,-130,232,-126r0,23r-60,0v-210,-13,-135,153,-135,303v0,55,-17,90,-83,102r0,4v135,17,76,184,76,298v0,73,25,107,142,107r60,0r0,23v-132,4,-232,-10,-232,-126"},"}":{"d":"94,129r60,0v211,11,136,-150,136,-303v0,-55,15,-90,82,-102r0,-4v-67,-12,-82,-47,-82,-102v0,-65,8,-135,8,-196v0,-73,-27,-107,-144,-107r-60,0r0,-23v132,-4,231,10,231,126v0,68,-8,147,-8,211v0,41,25,81,150,81r0,24v-125,0,-150,40,-150,81v0,71,8,137,8,211v0,116,-98,130,-231,126r0,-23"},"\/":{"d":"480,-710r-326,870r-34,0r326,-870r34,0"},"|":{"d":"286,250r0,-1000r28,0r0,1000r-28,0"},"\\":{"d":"446,160r-326,-870r34,0r326,870r-34,0"},"*":{"d":"176,-128r-24,-17r118,-173r-169,-72r9,-24r172,64r5,-198r26,0r5,198r172,-64r9,24r-169,72r118,173r-24,17r-124,-172"},"@":{"d":"542,-396r0,296r-26,0r-4,-64r-4,0v-32,38,-92,76,-142,76v-69,0,-130,-40,-130,-124v0,-96,92,-148,276,-170v3,-121,-42,-218,-163,-218v-143,0,-253,133,-253,354v0,220,100,360,246,360v60,0,108,-17,148,-50r16,22v-48,38,-101,56,-164,56v-155,0,-278,-144,-278,-390v0,-241,122,-380,288,-380v128,0,190,100,190,232xm268,-212v0,61,40,96,102,96v42,0,94,-28,142,-86r0,-154v-173,24,-244,69,-244,144"},"#":{"d":"158,0r26,-218r-84,0r0,-28r88,0r22,-178r-90,0r0,-28r92,0r26,-198r28,0r-26,198r156,0r26,-198r28,0r-26,198r82,0r0,28r-84,0r-22,178r86,0r0,28r-90,0r-26,218r-28,0r26,-218r-156,0r-26,218r-28,0xm216,-246r156,0r22,-178r-156,0"},"$":{"d":"480,-548r-20,20v-44,-38,-78,-62,-154,-62v-85,0,-142,44,-142,112v0,142,338,110,338,294v0,90,-81,146,-179,150r0,144r-30,0r0,-145v-83,-4,-149,-42,-191,-77r18,-22v40,34,106,72,191,72v103,0,159,-50,159,-120v0,-156,-338,-128,-338,-294v0,-83,70,-136,161,-142r0,-132r30,0r0,132v76,4,118,34,157,70"},"\u20ac":{"d":"530,-100r22,18v-47,58,-100,94,-184,94v-126,0,-214,-101,-234,-262r-66,0r0,-24r64,-4v-2,-25,-3,-53,-1,-80r-63,0r0,-24r66,-4v18,-165,111,-266,250,-266v68,0,126,38,158,78r-22,20v-36,-42,-80,-70,-136,-70v-123,0,-200,91,-216,238r326,0r0,28r-329,0v-2,27,-1,55,1,80r288,0r0,28r-286,0v18,143,90,234,202,234v66,0,113,-28,160,-84"},"\u20a1":{"d":"341,-623r-70,589v21,11,44,17,70,18r71,-601v-21,-6,-46,-9,-71,-6xm245,-50r67,-568v-107,26,-168,136,-168,296v0,127,36,224,101,272xm510,-100r22,18v-44,54,-92,89,-166,93r-12,99r-28,0r12,-98v-25,-1,-49,-7,-71,-16r-13,114r-28,0r15,-127v-82,-49,-131,-159,-131,-305v0,-180,78,-302,206,-326r12,-102r28,0r-12,99v26,-3,49,1,72,6r12,-105r28,0r-14,115v34,15,61,38,80,61r-22,20v-18,-21,-38,-39,-61,-51r-70,588v56,-5,99,-33,141,-83"},"\u20a4":{"d":"153,-28r363,0r0,28r-429,0r0,-18v103,-53,137,-128,127,-232r-130,0r0,-24r124,-4v-5,-23,-13,-46,-22,-68r-102,0r0,-26r92,-2v-13,-37,-24,-73,-24,-112v0,-102,73,-166,195,-166v82,0,134,34,167,70r-22,20v-34,-34,-79,-62,-149,-62v-162,0,-191,132,-136,250r223,0r0,28r-213,0v8,22,15,44,20,68r193,0r0,28r-188,0v10,104,-23,168,-89,218r0,4"},"\u20a6":{"d":"428,-274r0,-70r-122,0r30,70r92,0xm434,-46r-5,-198r-81,0r82,198r4,0xm172,-274r131,0r-29,-70r-102,0r0,70xm166,-594r6,222r90,0r-92,-222r-4,0xm534,-344r-74,0r0,70r74,0r0,30r-74,0r0,244r-42,0r-102,-244r-144,0r0,244r-32,0r0,-244r-78,0r0,-26r78,-4r0,-70r-78,0r0,-24r78,-4r0,-268r42,0r113,268r133,0r0,-268r32,0r0,268r74,0r0,28"},"\u20a7":{"d":"172,-298r78,0v118,0,185,-47,192,-148r-270,0r0,148xm442,-474v0,-130,-125,-144,-270,-138r0,138r270,0xm540,-474r0,28r-66,0v-8,151,-135,188,-302,176r0,270r-30,0r0,-446r-82,0r0,-24r82,-4r0,-166r120,0v122,0,206,47,212,166r66,0"},"\u20ab":{"d":"134,0r0,-28r346,0r0,28r-346,0xm420,-200r0,-190v-46,-38,-76,-54,-126,-54v-78,0,-138,68,-138,148v0,98,48,162,134,162v43,0,87,-20,130,-66xm450,-594r82,0r0,24r-82,4r0,450r-24,0r-4,-48r-4,0v-33,32,-74,58,-130,58v-100,0,-164,-66,-164,-188v0,-167,199,-231,300,-126r-4,-146r-156,0r0,-28r156,0r0,-82r30,0r0,82"},"\u20b1":{"d":"172,-430r268,0v3,-22,3,-49,-1,-70r-267,0r0,70xm172,-298v128,6,240,-10,262,-104r-262,0r0,104xm172,-612r0,84r259,0v-24,-82,-141,-88,-259,-84xm540,-528r0,28r-69,0v4,21,4,48,1,70r68,0r0,28r-73,0v-29,117,-146,141,-295,132r0,270r-30,0r0,-402r-82,0r0,-24r82,-4r0,-70r-82,0r0,-24r82,-4r0,-112v149,-4,291,-4,323,112r75,0"},"\u20b2":{"d":"516,-306r0,246v-44,44,-98,68,-162,71r0,99r-30,0r0,-98v-137,-7,-226,-138,-226,-334v0,-190,86,-314,226,-329r0,-99r30,0r0,98v67,1,124,38,156,78r-22,20v-36,-42,-80,-70,-136,-70v-140,0,-220,118,-220,302v0,184,76,306,206,306v62,0,121,-26,148,-56r0,-206r-148,0r0,-28r178,0"},"\u20b5":{"d":"336,-16r0,-606v-123,15,-192,129,-192,300v0,177,71,297,192,306xm510,-100r22,18v-44,54,-92,89,-166,93r0,99r-30,0r0,-98v-137,-7,-226,-138,-226,-334v0,-190,86,-314,226,-329r0,-101r30,0r0,100v67,1,124,38,156,78r-22,20v-36,-41,-79,-69,-134,-70r0,607v58,-4,101,-32,144,-83"},"\u20b9":{"d":"525,-640r0,28r-164,0v51,17,84,58,93,108r71,0r0,28r-69,0v-1,114,-81,175,-203,183r227,293r-37,0r-226,-292r-94,0r0,-28r84,0v136,0,217,-48,217,-156r-301,0r0,-24v94,-7,199,-3,299,-4v-11,-100,-158,-114,-299,-108r0,-28r402,0"},"\u20ba":{"d":"224,-18v129,1,312,-79,265,-246r27,-10v52,198,-138,290,-324,286r0,-306r-120,54r0,-30r120,-54r0,-86r-120,54r0,-30r120,-54r0,-200r32,0r0,184r201,-94r0,30r-201,94r0,86r201,-94r0,30r-201,94r0,292"},"%":{"d":"160,-328v-78,0,-132,-59,-132,-164v0,-104,54,-160,132,-160v78,0,132,56,132,160v0,105,-54,164,-132,164xm160,-354v58,0,102,-51,102,-138v0,-89,-44,-134,-102,-134v-58,0,-102,45,-102,134v0,87,44,138,102,138xm64,-36r-26,-22r180,-200r18,16xm536,-624r26,22r-180,200r-18,-16xm440,12v-78,0,-132,-59,-132,-164v0,-104,54,-160,132,-160v78,0,132,56,132,160v0,105,-54,164,-132,164xm440,-14v58,0,102,-51,102,-138v0,-89,-44,-134,-102,-134v-58,0,-102,45,-102,134v0,87,44,138,102,138"},"+":{"d":"284,-112r0,-204r-186,0r0,-28r186,0r0,-204r32,0r0,204r186,0r0,28r-186,0r0,204r-32,0"},"=":{"d":"98,-416r0,-28r404,0r0,28r-404,0xm98,-216r0,-28r404,0r0,28r-404,0"},"<":{"d":"124,-316r0,-32r362,-254r0,36r-330,232r0,4r330,232r0,36"},">":{"d":"476,-348r0,32r-362,254r0,-36r330,-232r0,-4r-330,-232r0,-36"},"^":{"d":"132,-292r150,-378r36,0r150,378r-32,0r-134,-346r-4,0r-134,346r-32,0"},"~":{"d":"120,-272r-24,-8v28,-86,72,-110,114,-110v76,0,124,92,182,92v34,0,62,-8,88,-90r24,10v-28,84,-72,108,-114,108v-76,0,-124,-92,-182,-92v-34,0,-62,10,-88,90"},"`":{"d":"324,-572r-104,-134r40,0r92,134r-28,0"},"\u00a0":{}}});


/*!
 * The following copyright notice may not be removed under any circumstances.
 * 
 * Copyright:
 * Copyright 2010, 2012 Adobe Systems Incorporated. All Rights Reserved.
 * 
 * Trademark:
 * Source is a trademark of Adobe Systems Incorporated in the United States and/or
 * other countries.
 * 
 * Manufacturer:
 * Adobe Systems Incorporated
 * 
 * Designer:
 * Paul D. Hunt
 * 
 * Vendor URL:
 * http://www.adobe.com/type
 * 
 * License information:
 * http://www.adobe.com/type/legal.html
 */
Rafael.registerFont({"w":600,"face":{"font-family":"Source Code Pro Light","font-weight":300,"font-stretch":"normal","units-per-em":"1000","panose-1":"2 11 4 9 3 4 3 2 2 4","ascent":"750","descent":"-250","x-height":"12","bbox":"11 -815 589 250","underline-thickness":"50","underline-position":"-50","stemh":"40","stemv":"48","unicode-range":"U+0020-U+20BA"},"glyphs":{" ":{},"A":{"d":"183,-265r234,0r-42,-123v-27,-78,-50,-147,-73,-228r-4,0v-23,81,-47,150,-73,228xm506,0r-76,-226r-261,0r-78,226r-46,0r232,-659r46,0r232,659r-49,0"},"B":{"d":"115,0r0,-659r165,0v133,0,217,50,217,160v0,69,-39,124,-117,144r0,4v97,14,158,68,158,159v0,127,-96,192,-245,192r-178,0xm161,-369r101,0v135,0,189,-44,189,-131v0,-85,-63,-121,-184,-121r-106,0r0,252xm161,-38r120,0v131,0,211,-48,211,-154v0,-94,-77,-140,-211,-140r-120,0r0,294"},"C":{"d":"72,-331v0,-209,114,-340,283,-340v76,0,135,38,171,79r-28,30v-35,-40,-83,-67,-143,-67v-145,0,-235,115,-235,298v0,183,90,301,232,301v67,0,117,-27,165,-81r27,29v-50,58,-110,94,-195,94v-163,0,-277,-133,-277,-343"},"D":{"d":"96,0r0,-659r151,0v202,0,298,128,298,327v0,200,-96,332,-297,332r-152,0xm142,-39r101,0v177,0,254,-121,254,-293v0,-171,-77,-288,-254,-288r-101,0r0,581"},"E":{"d":"127,0r0,-659r390,0r0,40r-344,0r0,249r290,0r0,40r-290,0r0,290r354,0r0,40r-400,0"},"F":{"d":"150,0r0,-659r385,0r0,40r-340,0r0,262r286,0r0,40r-286,0r0,317r-45,0"},"G":{"d":"59,-331v0,-209,114,-340,284,-340v87,0,141,42,175,79r-27,30v-33,-37,-78,-67,-148,-67v-145,0,-236,115,-236,298v0,183,86,301,230,301v58,0,112,-18,143,-50r0,-205r-152,0r0,-39r197,0r0,261v-40,44,-106,75,-191,75v-164,0,-275,-133,-275,-343"},"H":{"d":"89,0r0,-659r46,0r0,289r330,0r0,-289r46,0r0,659r-46,0r0,-330r-330,0r0,330r-46,0"},"I":{"d":"107,0r0,-40r170,0r0,-579r-170,0r0,-40r386,0r0,40r-170,0r0,579r170,0r0,40r-386,0"},"J":{"d":"93,-98r37,-26v38,65,92,95,148,95v109,0,156,-59,156,-179r0,-413r-287,0r0,-39r333,0r0,456v0,120,-50,216,-203,216v-74,0,-145,-36,-184,-110"},"K":{"d":"115,0r0,-659r47,0r0,366r2,0r325,-366r54,0r-213,244r241,415r-53,0r-220,-380r-136,153r0,227r-47,0"},"L":{"d":"150,0r0,-659r44,0r0,619r345,0r0,40r-389,0"},"M":{"d":"91,0r0,-659r59,0r110,307r39,117r4,0r38,-117r109,-307r59,0r0,659r-43,0r0,-461v0,-44,3,-103,5,-148r-3,0r-38,118r-114,311r-32,0r-115,-311v-15,-38,-24,-83,-42,-118v2,45,6,104,6,148r0,461r-42,0"},"N":{"d":"92,0r0,-659r48,0r328,596r2,0v-2,-64,-6,-127,-6,-191r0,-405r44,0r0,659r-48,0r-328,-596r-2,0v2,64,6,124,6,188r0,408r-44,0"},"O":{"d":"300,12v-144,0,-246,-135,-246,-344v0,-208,102,-339,246,-339v144,0,246,131,246,339v0,209,-102,344,-246,344xm300,-30v118,0,198,-119,198,-302v0,-182,-80,-297,-198,-297v-118,0,-198,115,-198,297v0,183,80,302,198,302"},"P":{"d":"118,0r0,-659r180,0v147,0,235,48,235,184v0,129,-88,192,-235,192r-134,0r0,283r-46,0xm164,-322r122,0v135,0,199,-45,199,-153v0,-111,-65,-145,-199,-145r-122,0r0,298"},"Q":{"d":"104,-332v0,182,76,304,196,304v119,0,196,-122,196,-304v0,-182,-77,-300,-196,-300v-120,0,-196,118,-196,300xm529,102r9,42v-129,35,-235,-37,-264,-133v-130,-16,-217,-148,-217,-343v0,-208,98,-340,243,-340v144,0,242,132,242,340v0,196,-87,328,-217,343v20,75,113,117,204,91"},"R":{"d":"163,-341r130,0v117,0,182,-47,182,-144v0,-99,-65,-135,-182,-135r-130,0r0,279xm535,0r-54,0r-178,-303r-140,0r0,303r-46,0r0,-659r188,0v131,0,217,48,217,174v0,105,-66,165,-169,179"},"S":{"d":"76,-87r30,-32v50,54,122,89,203,89v107,0,174,-54,174,-132v0,-122,-143,-139,-229,-183v-58,-30,-143,-66,-143,-164v0,-95,86,-162,201,-162v84,0,151,36,194,79r-27,31v-41,-41,-97,-68,-167,-68v-93,0,-155,46,-155,118v0,76,73,103,124,127v102,49,248,74,248,219v0,101,-87,177,-220,177v-101,0,-179,-41,-233,-99"},"T":{"d":"277,0r0,-619r-229,0r0,-40r504,0r0,40r-229,0r0,619r-46,0"},"U":{"d":"89,-247r0,-412r46,0r0,407v0,170,77,222,165,222v90,0,168,-52,168,-222r0,-407r43,0r0,412v0,200,-100,259,-211,259v-110,0,-211,-59,-211,-259"},"V":{"d":"276,0r-217,-659r49,0r191,606r4,0r192,-606r46,0r-215,659r-50,0"},"W":{"d":"123,0r-109,-660r43,0r71,451v6,53,15,105,21,159r2,0r129,-438r42,0r129,438r4,0v6,-53,14,-106,21,-159r68,-451r42,0r-106,660r-56,0r-94,-316v-10,-38,-18,-76,-28,-115r-3,0v-10,39,-19,77,-30,115r-91,316r-55,0"},"X":{"d":"75,0r199,-341r-185,-318r50,0r109,194r54,90r4,0r158,-284r47,0r-185,320r199,339r-50,0r-177,-307r-4,0r-56,105r-116,202r-47,0"},"Y":{"d":"277,0r0,-242r-226,-417r47,0r202,373r4,0r86,-156r114,-217r45,0r-226,417r0,242r-46,0"},"Z":{"d":"70,0r0,-28r403,-593r-369,0r0,-39r424,0r0,28r-403,592r410,0r0,40r-465,0"},"a":{"d":"92,-120v0,-107,108,-158,368,-181v-1,-79,-33,-152,-143,-152v-72,0,-142,37,-182,65r-20,-33v38,-27,122,-71,207,-71v129,0,182,82,182,185r0,307r-37,0v-4,-23,0,-53,-7,-72v-56,44,-130,84,-201,84v-86,0,-167,-41,-167,-132xm137,-122v0,69,65,96,130,96v61,0,125,-30,193,-87r0,-154v-244,22,-323,68,-323,145"},"b":{"d":"105,0r0,-719r45,0r0,208r-3,103v52,-50,120,-84,182,-84v136,0,204,96,204,245v-1,244,-227,329,-386,193r-5,54r-37,0xm150,-98v56,51,118,71,158,71v103,0,178,-90,178,-220v0,-118,-46,-206,-164,-206v-50,0,-112,28,-172,88r0,267"},"c":{"d":"87,-239v0,-161,118,-253,262,-253v80,0,133,35,173,73r-26,30v-41,-38,-87,-64,-146,-64v-128,0,-216,87,-216,214v0,126,86,212,215,212v65,0,119,-29,162,-69r23,31v-49,46,-112,77,-187,77v-149,0,-260,-92,-260,-251"},"d":{"d":"67,-239v0,-231,241,-329,386,-185r-3,-97r0,-198r45,0r0,719r-38,0v-4,-22,0,-52,-7,-71v-42,44,-104,83,-171,83v-126,0,-212,-89,-212,-251xm114,-239v0,127,64,212,171,212v56,0,112,-32,165,-88r0,-267v-54,-51,-104,-71,-154,-71v-101,0,-182,93,-182,214"},"e":{"d":"77,-239v0,-157,118,-253,240,-253v142,-1,229,101,213,258r-407,0v2,121,86,208,211,208v64,0,115,-21,160,-52r18,34v-44,28,-98,56,-182,56v-138,0,-253,-94,-253,-251xm123,-270r366,0v0,-121,-68,-184,-171,-184v-95,0,-181,70,-195,184"},"f":{"d":"574,-702r-14,34v-45,-20,-73,-25,-118,-25v-125,0,-147,90,-140,213r223,0r0,38r-223,0r0,442r-42,0r0,-442r-145,0r0,-34r145,-4v-10,-151,37,-253,179,-251v43,0,86,6,135,29"},"g":{"d":"204,-8v-139,76,-91,203,101,203v132,0,211,-63,211,-123v0,-111,-208,-51,-312,-80xm308,231v-226,0,-294,-157,-143,-252r0,-4v-24,-12,-50,-37,-50,-77v0,-31,20,-65,58,-91r0,-4v-31,-25,-57,-66,-57,-124v0,-121,125,-203,245,-159r200,0r0,37r-146,0v30,29,57,71,57,123v0,131,-147,207,-268,145v-28,17,-47,41,-47,67v0,82,140,66,230,67v122,0,175,31,175,108v0,83,-99,164,-254,164xm295,-188v73,0,134,-54,134,-133v0,-78,-61,-135,-134,-135v-74,0,-134,57,-134,135v0,79,60,133,134,133"},"h":{"d":"105,0r0,-719r45,0r-3,334v60,-62,117,-107,194,-107v117,0,173,63,173,193r0,299r-45,0r0,-293v0,-107,-40,-159,-135,-159v-68,0,-115,35,-184,108r0,344r-45,0"},"i":{"d":"97,-442r0,-38r285,0r0,480r-44,0r0,-442r-241,0xm349,-596v-26,0,-47,-19,-47,-48v0,-29,21,-48,47,-48v27,0,47,19,47,48v0,29,-20,48,-47,48"},"j":{"d":"97,-442r0,-38r285,0r0,517v0,118,-45,192,-188,192v-45,0,-95,-14,-131,-32r18,-35v32,16,75,29,116,29v112,0,141,-60,141,-148r0,-485r-241,0xm349,-596v-26,0,-47,-19,-47,-48v0,-29,21,-48,47,-48v27,0,47,19,47,48v0,29,-20,48,-47,48"},"k":{"d":"123,0r0,-719r45,0r0,528r4,0r308,-289r55,0r-197,186r229,294r-51,0r-209,-267r-139,131r0,136r-45,0"},"l":{"d":"93,-681r0,-38r222,0r0,580v-5,122,113,134,204,86r14,35v-39,16,-73,30,-120,30v-91,0,-142,-48,-142,-157r0,-536r-178,0"},"m":{"d":"75,0r0,-480r36,0v4,20,0,48,7,65v28,-47,57,-77,110,-77v53,0,83,28,96,85v35,-54,65,-85,118,-85v66,0,104,48,104,144r0,348r-43,0r0,-343v0,-72,-23,-109,-70,-109v-43,0,-71,30,-103,90r0,362r-40,0r0,-343v0,-72,-23,-109,-69,-109v-44,0,-72,30,-103,90r0,362r-43,0"},"n":{"d":"105,0r0,-480r38,0r5,92r4,0v55,-59,112,-104,189,-104v117,0,173,63,173,193r0,299r-45,0r0,-293v0,-107,-40,-159,-135,-159v-68,0,-115,35,-184,108r0,344r-45,0"},"o":{"d":"67,-239v0,-161,107,-253,233,-253v126,0,233,92,233,253v0,159,-107,251,-233,251v-126,0,-233,-92,-233,-251xm114,-239v0,126,78,212,186,212v108,0,186,-86,186,-212v0,-127,-78,-214,-186,-214v-108,0,-186,87,-186,214"},"p":{"d":"149,-56r1,273r-45,0r0,-697r38,0v4,22,0,51,7,69v48,-46,117,-81,179,-81v136,0,204,96,204,245v-1,240,-228,334,-384,191xm150,-98v56,51,118,71,156,71v105,0,180,-90,180,-220v0,-118,-46,-206,-164,-206v-50,0,-112,28,-172,88r0,267"},"q":{"d":"67,-239v0,-232,240,-326,386,-186r5,-55r37,0r0,697r-45,0r0,-194r3,-95v-47,46,-107,84,-174,84v-126,0,-212,-89,-212,-251xm114,-239v0,127,64,212,171,212v56,0,112,-32,165,-88r0,-267v-54,-51,-104,-71,-154,-71v-101,0,-182,93,-182,214"},"r":{"d":"163,0r0,-480r38,0v4,38,-1,84,7,118v67,-99,189,-166,322,-110r-12,39v-141,-45,-220,-4,-310,133r0,300r-45,0"},"s":{"d":"83,-64r25,-32v52,43,114,70,213,70v99,0,150,-44,150,-95v0,-44,-31,-76,-172,-110v-108,-26,-189,-69,-189,-133v0,-70,59,-128,188,-128v64,0,138,25,184,59r-24,32v-42,-32,-96,-53,-161,-53v-107,0,-141,42,-141,87v0,46,63,76,162,100v150,37,199,75,199,144v0,72,-72,135,-198,135v-99,0,-179,-35,-236,-76"},"t":{"d":"396,12v-231,0,-160,-251,-171,-454r-145,0r0,-34r146,-4r6,-139r37,0r0,139r256,0r0,38r-256,0r0,266v0,93,27,149,133,149v51,0,91,-9,129,-25r12,34v-43,18,-101,30,-147,30"},"u":{"d":"494,-480r0,480r-37,0r-5,-93r-4,0v-52,61,-112,105,-189,105v-117,0,-172,-63,-172,-193r0,-299r44,0r0,293v0,107,40,159,135,159v68,0,118,-34,184,-109r0,-343r44,0"},"v":{"d":"278,0r-216,-480r46,0r192,439r4,0r58,-138r133,-301r43,0r-213,480r-47,0"},"w":{"d":"135,0r-124,-480r47,0r77,311v11,44,21,85,29,128r4,0r109,-431r49,0r109,431r4,0r106,-439r44,0r-122,480r-57,0r-76,-294v-11,-46,-20,-90,-32,-137r-4,0v-10,44,-19,90,-32,139r-74,292r-57,0"},"x":{"d":"80,0r192,-249r-177,-231r51,0r153,203r4,0r153,-203r49,0r-179,233r194,247r-51,0r-170,-219r-4,0r-166,219r-49,0"},"y":{"d":"79,170v117,37,182,-61,214,-161r-233,-489r46,0r140,302v19,40,43,92,66,135r4,0r181,-437r43,0r-226,540v-30,96,-121,190,-247,149"},"z":{"d":"72,0r0,-24r376,-418r-336,0r0,-38r403,0r0,23r-376,418r387,0r0,39r-454,0"},"\u00c7":{"d":"517,-111r27,29v-48,56,-105,91,-185,94r-22,42v32,11,60,29,60,69v0,52,-61,77,-125,85r-7,-30v55,-8,93,-23,93,-51v0,-30,-28,-43,-67,-53r33,-63v-149,-13,-252,-143,-252,-342v0,-209,114,-340,283,-340v76,0,135,38,171,79r-28,30v-35,-40,-83,-67,-143,-67v-145,0,-235,115,-235,298v0,183,90,301,232,301v67,0,117,-27,165,-81"},"\u011e":{"d":"59,-331v0,-209,114,-340,284,-340v87,0,141,42,175,79r-27,30v-33,-37,-78,-67,-148,-67v-145,0,-236,115,-236,298v0,183,86,301,230,301v58,0,112,-18,143,-50r0,-205r-152,0r0,-39r197,0r0,261v-40,44,-106,75,-191,75v-164,0,-275,-133,-275,-343xm332,-711v-76,0,-109,-58,-115,-104r32,0v6,35,31,72,83,72v51,0,76,-37,82,-72r33,0v-6,46,-40,104,-115,104"},"\u0130":{"d":"107,0r0,-40r170,0r0,-579r-170,0r0,-40r386,0r0,40r-170,0r0,579r170,0r0,40r-386,0xm300,-721v-22,0,-40,-16,-40,-41v0,-23,18,-39,40,-39v22,0,40,16,40,39v0,25,-18,41,-40,41"},"\u00d6":{"d":"300,12v-144,0,-246,-135,-246,-344v0,-208,102,-339,246,-339v144,0,246,131,246,339v0,209,-102,344,-246,344xm300,-30v118,0,198,-119,198,-302v0,-182,-80,-297,-198,-297v-118,0,-198,115,-198,297v0,183,80,302,198,302xm221,-725v-21,0,-36,-14,-36,-36v0,-23,15,-37,36,-37v21,0,37,14,37,37v0,22,-16,36,-37,36xm379,-725v-21,0,-37,-14,-37,-36v0,-23,16,-37,37,-37v21,0,36,14,36,37v0,22,-15,36,-36,36"},"\u015e":{"d":"281,-384v102,49,248,74,248,219v0,95,-77,168,-198,176r-22,43v32,11,60,29,60,69v0,52,-61,77,-126,85r-6,-30v55,-8,92,-23,92,-51v0,-30,-28,-43,-66,-53r33,-62v-95,-4,-168,-44,-220,-99r30,-32v50,54,122,89,203,89v107,0,174,-54,174,-132v0,-122,-143,-139,-229,-183v-58,-30,-143,-66,-143,-164v0,-95,86,-162,201,-162v84,0,151,36,194,79r-27,31v-41,-41,-97,-68,-167,-68v-93,0,-155,46,-155,118v0,76,73,103,124,127"},"\u00dc":{"d":"89,-247r0,-412r46,0r0,407v0,170,77,222,165,222v90,0,168,-52,168,-222r0,-407r43,0r0,412v0,200,-100,259,-211,259v-110,0,-211,-59,-211,-259xm221,-725v-21,0,-36,-14,-36,-36v0,-23,15,-37,36,-37v21,0,37,14,37,37v0,22,-16,36,-37,36xm379,-725v-21,0,-37,-14,-37,-36v0,-23,16,-37,37,-37v21,0,36,14,36,37v0,22,-15,36,-36,36"},"\u00e7":{"d":"363,12r-22,42v32,11,60,29,60,69v0,52,-61,77,-126,85r-6,-30v55,-8,92,-23,92,-51v0,-30,-28,-43,-67,-53r33,-63v-139,-7,-240,-98,-240,-250v0,-161,118,-253,262,-253v80,0,133,35,173,73r-26,30v-41,-38,-87,-64,-146,-64v-128,0,-216,87,-216,214v0,126,86,212,215,212v65,0,119,-29,162,-69r23,31v-45,43,-103,72,-171,77"},"\u011f":{"d":"204,-8v-139,76,-91,203,101,203v132,0,211,-63,211,-123v0,-111,-208,-51,-312,-80xm308,231v-226,0,-294,-157,-143,-252r0,-4v-24,-12,-50,-37,-50,-77v0,-31,20,-65,58,-91r0,-4v-31,-25,-57,-66,-57,-124v0,-121,125,-203,245,-159r200,0r0,37r-146,0v30,29,57,71,57,123v0,131,-147,207,-268,145v-28,17,-47,41,-47,67v0,82,140,66,230,67v122,0,175,31,175,108v0,83,-99,164,-254,164xm295,-188v73,0,134,-54,134,-133v0,-78,-61,-135,-134,-135v-74,0,-134,57,-134,135v0,79,60,133,134,133xm309,-576v-82,0,-114,-69,-120,-121r33,0v6,44,33,89,87,89v54,0,81,-45,87,-89r33,0v-5,52,-37,121,-120,121"},"\u0131":{"d":"97,-442r0,-38r285,0r0,480r-44,0r0,-442r-241,0"},"\u00f6":{"d":"67,-239v0,-161,107,-253,233,-253v126,0,233,92,233,253v0,159,-107,251,-233,251v-126,0,-233,-92,-233,-251xm114,-239v0,126,78,212,186,212v108,0,186,-86,186,-212v0,-127,-78,-214,-186,-214v-108,0,-186,87,-186,214xm211,-598v-23,0,-39,-18,-39,-41v0,-23,16,-42,39,-42v23,0,40,19,40,42v0,23,-17,41,-40,41xm389,-598v-23,0,-40,-18,-40,-41v0,-23,17,-42,40,-42v23,0,39,19,39,42v0,23,-16,41,-39,41"},"\u015f":{"d":"482,-433r-24,32v-42,-32,-96,-53,-161,-53v-107,0,-141,42,-141,87v0,46,63,76,162,100v150,37,199,75,199,144v0,69,-66,130,-182,135r-22,42v33,11,60,29,60,69v0,52,-61,77,-125,85r-7,-30v55,-8,93,-23,93,-51v0,-30,-28,-43,-67,-53r33,-62v-90,-5,-164,-38,-217,-76r25,-32v52,43,114,70,213,70v99,0,150,-44,150,-95v0,-44,-31,-76,-172,-110v-108,-26,-189,-69,-189,-133v0,-70,59,-128,188,-128v64,0,138,25,184,59"},"\u00fc":{"d":"494,-480r0,480r-37,0r-5,-93r-4,0v-52,61,-112,105,-189,105v-117,0,-172,-63,-172,-193r0,-299r44,0r0,293v0,107,40,159,135,159v68,0,118,-34,184,-109r0,-343r44,0xm205,-598v-23,0,-39,-18,-39,-41v0,-23,16,-42,39,-42v24,0,40,19,40,42v0,23,-16,41,-40,41xm383,-598v-23,0,-39,-18,-39,-41v0,-23,16,-42,39,-42v23,0,39,19,39,42v0,23,-16,41,-39,41"},"&":{"d":"246,-26v54,0,103,-29,143,-71v-70,-64,-139,-147,-186,-231v-57,45,-105,93,-105,158v0,87,68,144,148,144xm274,-635v-117,0,-105,161,-55,250v66,-49,126,-96,126,-164v0,-43,-18,-86,-71,-86xm571,-27r-15,39v-41,-15,-88,-42,-137,-83v-48,49,-104,83,-177,83v-105,0,-189,-70,-189,-179v0,-86,64,-142,133,-194v-28,-56,-45,-112,-45,-163v0,-85,55,-147,134,-147v72,0,111,51,111,120v0,85,-77,141,-151,198v46,83,114,165,181,225v47,-60,79,-133,102,-217r43,0v-26,90,-64,175,-115,242v45,37,88,62,125,76"},"0":{"d":"300,12v-139,0,-219,-123,-219,-334v0,-212,80,-329,219,-329v139,0,219,117,219,329v0,211,-80,334,-219,334xm300,-613v-104,0,-175,97,-175,291v0,194,71,296,175,296v104,0,175,-102,175,-296v0,-194,-71,-291,-175,-291xm300,-271v-28,0,-55,-21,-55,-60v0,-39,27,-60,55,-60v28,0,55,21,55,60v0,39,-27,60,-55,60"},"1":{"d":"343,-39r179,0r0,39r-414,0r0,-39r191,0r0,-530r-139,0r0,-30v64,-9,113,-23,150,-40r33,0r0,600"},"2":{"d":"82,0r0,-28v236,-213,352,-328,352,-443v0,-80,-48,-142,-158,-142v-66,0,-124,36,-168,84r-29,-28v53,-53,115,-94,201,-94v125,0,198,71,198,179v0,127,-126,249,-329,437v117,-8,242,-4,365,-5r0,40r-432,0"},"3":{"d":"67,-78r25,-31v42,42,104,82,200,82v98,0,173,-56,173,-141v0,-88,-77,-148,-255,-148r0,-39v167,0,231,-62,231,-139v0,-72,-62,-119,-152,-119v-66,0,-129,31,-169,70r-27,-30v48,-43,115,-78,197,-78v110,0,197,56,197,154v0,84,-63,134,-145,158r0,4v89,17,169,76,169,166v0,111,-97,181,-219,181v-111,0,-181,-47,-225,-90"},"4":{"d":"102,-230r282,0r0,-251v2,-31,3,-65,5,-97r-6,0v-87,123,-187,232,-281,348xm538,-230r0,39r-111,0r0,191r-43,0r0,-191r-342,0r0,-27r350,-422r35,0r0,410r111,0"},"5":{"d":"62,-74r25,-31v44,39,98,78,200,78v99,0,183,-69,183,-172v0,-103,-69,-165,-181,-165v-59,0,-96,17,-143,43r-31,-19r24,-299r344,0r0,39r-304,0r-21,231v41,-20,80,-34,138,-34v125,0,220,62,220,202v0,136,-112,213,-229,213v-116,0,-178,-45,-225,-86"},"6":{"d":"325,-26v90,0,157,-71,157,-162v0,-101,-54,-160,-161,-160v-55,0,-125,26,-189,97v10,135,71,225,193,225xm513,-589r-27,30v-36,-35,-84,-53,-136,-53v-116,0,-217,81,-219,316v55,-55,122,-90,196,-90v122,0,200,69,200,198v0,116,-95,200,-204,200v-144,0,-237,-108,-237,-302v0,-268,126,-361,264,-361v71,0,122,25,163,62"},"7":{"d":"245,0v10,-259,73,-414,226,-600r-397,0r0,-39r454,0r0,26v-175,203,-225,362,-234,613r-49,0"},"8":{"d":"116,-166v0,79,71,141,189,141v115,0,176,-58,176,-131v0,-107,-104,-131,-228,-171v-78,38,-137,82,-137,161xm357,-335v65,-44,98,-93,98,-148v0,-71,-52,-131,-151,-131v-84,0,-141,50,-141,119v0,91,88,127,194,160xm72,-164v0,-94,77,-147,148,-179r0,-4v-53,-30,-100,-80,-100,-148v0,-92,79,-156,185,-156v124,0,193,71,193,167v0,61,-45,120,-102,160r0,4v73,36,130,72,130,165v0,93,-81,167,-222,167v-142,0,-232,-75,-232,-176"},"9":{"d":"280,-291v57,0,127,-28,190,-98v-10,-135,-71,-224,-193,-224v-90,0,-158,70,-158,161v0,101,54,161,161,161xm88,-50r27,-30v37,35,84,53,137,53v115,0,217,-80,219,-316v-56,54,-122,89,-196,89v-123,0,-200,-69,-200,-198v0,-116,95,-199,203,-199v144,0,237,107,237,301v0,268,-126,362,-263,362v-71,0,-122,-25,-164,-62"},".":{"d":"240,-53v0,-42,29,-65,60,-65v31,0,60,23,60,65v0,41,-29,65,-60,65v-31,0,-60,-24,-60,-65"},",":{"d":"221,211r-16,-33v80,-39,121,-93,124,-181v-45,11,-83,-7,-83,-56v0,-41,29,-60,60,-60v46,0,70,40,70,102v0,111,-62,188,-155,228"},":":{"d":"240,-432v0,-41,29,-65,60,-65v31,0,60,24,60,65v0,42,-29,66,-60,66v-31,0,-60,-24,-60,-66xm240,-53v0,-42,29,-65,60,-65v31,0,60,23,60,65v0,41,-29,65,-60,65v-31,0,-60,-24,-60,-65"},";":{"d":"300,-366v-31,0,-60,-24,-60,-66v0,-41,29,-65,60,-65v31,0,60,24,60,65v0,42,-29,66,-60,66xm221,211r-16,-33v80,-39,121,-93,124,-181v-45,11,-83,-7,-83,-56v0,-41,29,-60,60,-60v46,0,70,40,70,102v0,111,-62,188,-155,228"},"!":{"d":"284,-219r-5,-451r42,0r-5,451r-32,0xm242,-51v0,-41,28,-63,58,-63v30,0,58,22,58,63v0,40,-28,63,-58,63v-30,0,-58,-23,-58,-63"},"?":{"d":"257,-219v-26,-148,166,-189,166,-307v0,-63,-41,-117,-132,-117v-56,0,-107,23,-146,64r-29,-27v42,-43,101,-76,178,-76v109,0,174,66,174,152v0,131,-192,173,-171,311r-40,0xm228,-51v0,-41,28,-63,58,-63v30,0,58,22,58,63v0,40,-28,63,-58,63v-30,0,-58,-23,-58,-63"},"'":{"d":"282,-381v-8,-101,-23,-195,-20,-307r76,0v3,112,-12,206,-20,307r-36,0"},"\"":{"d":"178,-381v-8,-101,-23,-195,-20,-307r76,0v3,112,-12,206,-20,307r-36,0xm386,-381v-8,-101,-23,-195,-20,-307r76,0v3,112,-12,206,-20,307r-36,0"},"-":{"d":"95,-311r0,-38r410,0r0,38r-410,0"},"_":{"d":"60,79r480,0r0,46r-480,0r0,-46"},"(":{"d":"456,174v-144,-104,-232,-256,-232,-452v0,-196,88,-348,232,-452r25,28v-284,204,-284,645,0,848"},")":{"d":"144,174r-25,-28v284,-204,284,-645,0,-848r25,-28v144,104,232,256,232,452v0,196,-88,348,-232,452"},"[":{"d":"240,152r0,-860r265,0r0,30r-226,0r0,800r226,0r0,30r-265,0"},"]":{"d":"95,122r226,0r0,-800r-226,0r0,-30r265,0r0,860r-265,0r0,-30"},"{":{"d":"269,24v0,-74,9,-136,9,-206v0,-40,-25,-80,-149,-80r0,-32v124,0,149,-40,149,-80v0,-64,-9,-138,-9,-206v0,-118,101,-133,236,-128r0,30r-58,0v-204,-13,-130,149,-130,294v0,58,-19,92,-85,104r0,4v134,15,78,181,78,296v0,71,24,102,137,102r58,0r0,30v-133,4,-236,-10,-236,-128"},"}":{"d":"95,122r58,0v206,12,131,-147,131,-294v0,-58,17,-92,84,-104r0,-4v-135,-15,-76,-181,-76,-296v0,-71,-26,-102,-139,-102r-58,0r0,-30r52,0v124,0,183,28,183,128v0,68,-8,142,-8,206v0,40,25,80,148,80r0,32v-123,0,-148,40,-148,80v0,70,8,132,8,206v0,118,-100,133,-235,128r0,-30"},"\/":{"d":"486,-710r-327,870r-45,0r327,-870r45,0"},"|":{"d":"280,250r0,-1000r40,0r0,1000r-40,0"},"\\":{"d":"441,160r-327,-870r45,0r327,870r-45,0"},"*":{"d":"177,-123r-29,-21r116,-171r-168,-71r11,-30r171,61r6,-195r32,0r6,195r171,-61r11,30r-168,71r116,171r-29,21r-123,-169"},"@":{"d":"543,-396r0,296r-32,0r-5,-62r-4,0v-31,37,-89,74,-140,74v-69,0,-129,-43,-129,-126v0,-97,92,-149,273,-170v3,-117,-41,-211,-160,-211v-137,0,-246,128,-246,349v0,218,101,353,242,353v60,0,107,-17,146,-48r20,28v-49,37,-102,56,-166,56v-156,0,-282,-142,-282,-392v0,-244,124,-381,289,-381v131,0,194,101,194,234xm274,-214v0,57,38,90,96,90v40,0,89,-27,134,-80r0,-147v-164,23,-230,65,-230,137"},"#":{"d":"154,0r25,-214r-83,0r0,-36r88,0r21,-170r-89,0r0,-36r92,0r26,-194r34,0r-25,194r150,0r25,-194r35,0r-25,194r81,0r0,36r-84,0r-21,170r85,0r0,36r-90,0r-26,214r-35,0r26,-214r-150,0r-25,214r-35,0xm219,-250r150,0r21,-170r-150,0"},"$":{"d":"484,-546r-26,28v-45,-38,-79,-61,-153,-61v-80,0,-133,41,-133,104v0,133,333,104,333,288v0,89,-78,146,-178,152r0,145r-39,0r0,-145v-80,-5,-148,-41,-191,-77r24,-32v43,35,107,71,190,71v96,0,148,-46,148,-111v0,-147,-332,-121,-332,-289v0,-84,68,-137,161,-144r0,-132r39,0r0,131v75,5,118,35,157,72"},"\u20ac":{"d":"527,-107r29,25v-48,58,-103,94,-186,94v-128,0,-218,-99,-239,-258r-66,0r0,-29r62,-4v-1,-25,-2,-52,0,-77r-62,0r0,-29r65,-4v20,-163,115,-262,255,-262v68,0,127,36,161,78r-29,27v-36,-40,-78,-67,-133,-67v-116,0,-189,85,-206,224r318,0r0,33r-321,0v-2,24,-1,52,0,77r281,0r0,33r-277,0v18,135,87,220,193,220v64,0,109,-27,155,-81"},"\u20a1":{"d":"343,-612r-68,569v20,10,42,15,66,17r69,-580v-20,-7,-43,-8,-67,-6xm246,-62r65,-544v-101,26,-157,131,-157,284v0,120,33,212,92,260xm507,-107r29,25v-45,54,-95,89,-168,93r-12,99r-31,0r12,-98v-24,-2,-46,-6,-67,-14r-13,112r-31,0r15,-126v-84,-49,-135,-158,-135,-305v0,-181,80,-301,210,-325r12,-103r31,0r-12,99v24,-3,46,0,68,5r12,-104r31,0r-14,115v34,14,62,37,82,61r-29,27v-17,-19,-36,-36,-57,-47r-68,566v54,-5,94,-32,135,-80"},"\u20a4":{"d":"166,-40r354,0r0,40r-435,0r0,-27v97,-50,133,-120,126,-219r-129,0r0,-29r122,-5v-5,-22,-13,-44,-21,-65r-101,0r0,-31r89,-3v-11,-33,-21,-67,-21,-102v0,-105,76,-170,199,-170v82,0,135,33,169,71r-29,27v-33,-33,-76,-59,-142,-59v-150,-1,-183,120,-133,233r219,0r0,34r-207,0v8,21,15,42,20,65r187,0r0,34r-182,0v7,97,-24,154,-85,202r0,4"},"\u20a6":{"d":"424,-276r0,-68r-112,0r28,68r84,0xm433,-54r-7,-189r-72,0r75,189r4,0xm176,-276r121,0r-28,-68r-93,0r0,68xm167,-586r8,211r81,0r-85,-211r-4,0xm539,-344r-74,0r0,68r74,0r0,33r-74,0r0,243r-53,0r-101,-243r-135,0r0,243r-41,0r0,-243r-77,0r0,-29r77,-4r0,-68r-77,0r0,-27r77,-4r0,-264r53,0r111,264r125,0r0,-264r41,0r0,264r74,0r0,31"},"\u20a7":{"d":"179,-299v139,8,251,-19,254,-139r-254,0r0,139xm433,-474v-2,-121,-118,-136,-254,-130r0,130r254,0xm544,-474r0,36r-66,0v-10,148,-134,186,-299,175r0,263r-43,0r0,-438r-81,0r0,-31r81,-5r0,-165r127,0v121,0,208,46,215,165r66,0"},"\u20ab":{"d":"130,0r0,-34r355,0r0,34r-355,0xm414,-206r0,-180v-44,-36,-72,-51,-120,-51v-73,0,-131,63,-131,140v0,94,46,153,127,153v42,0,83,-18,124,-62xm455,-595r81,0r0,29r-81,5r0,444r-33,0r-5,-47r-4,0v-32,32,-73,57,-128,57v-101,0,-165,-66,-165,-188v0,-167,196,-231,298,-128r-4,-138r-156,0r0,-34r156,0r0,-78r41,0r0,78"},"\u20b1":{"d":"179,-427r253,0v3,-20,3,-48,-1,-67r-252,0r0,67xm179,-299v120,6,222,-10,246,-96r-246,0r0,96xm422,-525v-25,-76,-132,-83,-243,-79r0,79r243,0xm544,-525r0,31r-68,0v4,21,4,45,1,67r67,0r0,32r-73,0v-30,115,-145,141,-292,132r0,263r-43,0r0,-395r-81,0r0,-28r81,-4r0,-67r-81,0r0,-27r81,-4r0,-114v153,-3,300,-6,333,114r75,0"},"\u20b2":{"d":"519,-313r0,253v-44,43,-98,67,-160,71r0,99r-39,0r0,-99v-136,-9,-226,-137,-226,-332v0,-189,87,-312,226,-328r0,-100r39,0r0,98v65,3,121,38,154,78r-29,27v-35,-40,-78,-67,-132,-67v-134,0,-210,113,-210,291v0,179,73,295,198,295v57,0,111,-24,136,-51r0,-196r-139,0r0,-39r182,0"},"\u20b5":{"d":"334,-27r0,-584v-115,16,-180,125,-180,289v0,170,66,284,180,295xm507,-107r29,25v-44,53,-94,88,-165,93r0,99r-37,0r0,-99v-138,-9,-228,-136,-228,-332v0,-189,88,-313,228,-328r0,-101r37,0r0,99v65,2,122,37,155,78r-29,27v-34,-38,-74,-65,-126,-67r0,586v54,-5,95,-32,136,-80"},"\u20b9":{"d":"525,-639r0,33r-162,0v48,18,81,58,90,107r72,0r0,34r-70,0v-3,111,-79,171,-194,182r222,283r-53,0r-219,-281r-92,0r0,-39r82,0v129,0,206,-45,209,-145r-291,0r0,-30v91,-7,191,-3,288,-4v-11,-95,-153,-108,-288,-102r0,-38r406,0"},"\u20ba":{"d":"229,-31v125,-1,295,-76,252,-235r38,-13v51,202,-137,295,-336,291r0,-297r-115,52r0,-36r115,-52r0,-82r-115,52r0,-36r115,-53r0,-199r46,0r0,177r196,-92r0,36r-196,92r0,82r196,-92r0,36r-196,92r0,277"},"%":{"d":"162,-326v-79,0,-135,-60,-135,-165v0,-104,56,-160,135,-160v78,0,134,56,134,160v0,105,-56,165,-134,165xm162,-358v53,0,95,-48,95,-133v0,-86,-42,-128,-95,-128v-54,0,-96,42,-96,128v0,85,42,133,96,133xm68,-35r-33,-28r181,-197r22,20xm533,-624r32,28r-181,197r-22,-20xm438,12v-78,0,-134,-60,-134,-165v0,-104,56,-160,134,-160v79,0,135,56,135,160v0,105,-56,165,-135,165xm438,-20v54,0,96,-48,96,-133v0,-86,-42,-128,-96,-128v-53,0,-95,42,-95,128v0,85,42,133,95,133"},"+":{"d":"279,-110r0,-201r-184,0r0,-38r184,0r0,-201r42,0r0,201r184,0r0,38r-184,0r0,201r-42,0"},"=":{"d":"95,-413r0,-38r410,0r0,38r-410,0xm95,-209r0,-38r410,0r0,38r-410,0"},"<":{"d":"123,-312r0,-40r365,-254r0,48r-322,224r0,4r322,224r0,48"},">":{"d":"477,-352r0,40r-365,254r0,-48r322,-224r0,-4r-322,-224r0,-48"},"^":{"d":"126,-290r151,-380r46,0r151,380r-43,0r-129,-336r-4,0r-129,336r-43,0"},"~":{"d":"122,-267r-31,-12v29,-89,75,-115,120,-115v76,0,123,90,180,90v34,0,61,-10,87,-89r31,14v-29,87,-75,113,-120,113v-76,0,-123,-90,-180,-90v-34,0,-61,12,-87,89"},"`":{"d":"318,-572r-107,-138r53,0r92,138r-38,0"},"\u00a0":{}}});


/*!
 * The following copyright notice may not be removed under any circumstances.
 * 
 * Copyright:
 * Copyright 2010, 2012 Adobe Systems Incorporated. All Rights Reserved.
 * 
 * Trademark:
 * Source is a trademark of Adobe Systems Incorporated in the United States and/or
 * other countries.
 * 
 * Full name:
 * Source Code Pro Medium
 * 
 * Manufacturer:
 * Adobe Systems Incorporated
 * 
 * Designer:
 * Paul D. Hunt
 * 
 * Vendor URL:
 * http://www.adobe.com/type
 * 
 * License information:
 * http://www.adobe.com/type/legal.html
 */
